svm_type c_svc
kernel_type rbf
gamma 0.016666666666666666
nr_class 2
total_sv 61
rho 0.7459552554745362
label 1 -1
nr_sv 28 33
SV
0.5 1:-0.70354 2:-0.820832 3:-0.830486 4:-0.961484 5:-0.852904 6:-0.632894 7:-0.527597 8:-0.623815 9:-0.681327 10:-0.75404 11:-0.74082 12:-0.74619 13:-0.709803 14:-0.692895 15:-0.526733 16:-0.597802 17:-0.672573 18:-0.711169 19:-0.946981 20:-0.869649 21:-0.685287 22:-0.723546 23:-0.567235 24:0.0546051 25:0.680328 26:1.0 27:0.7235 28:0.329354 29:0.0943588 30:-0.142431 31:-0.318365 32:-0.629072 33:-0.75995 34:-0.601484 35:-0.411476 36:-0.543548 37:-0.845397 38:-1.0 39:-0.966899 40:-0.744227 41:-0.564331 42:-0.546032 43:-0.589551 44:-0.757279 45:-0.76116 46:-0.816237 47:-0.876132 48:-0.719078 49:-0.639576 50:-0.670303 51:-0.836653 52:-0.623395 53:-0.797403 54:-0.754386 55:-0.696145 56:-0.912821 57:-0.75 58:-0.90389 59:-0.955923 60:-0.949192 
0.5 1:-0.926254 2:-0.900557 3:-0.965177 4:-0.976224 5:-0.923916 6:-0.902177 7:-0.732684 8:-0.770673 9:-0.710055 10:-0.715144 11:-0.816248 12:-0.826788 13:-0.78811 14:-0.868413 15:-0.707894 16:-0.693873 17:-0.809553 18:-0.792416 19:-0.873554 20:-0.865154 21:-0.655565 22:-0.454044 23:-0.221151 24:0.214835 25:0.624385 26:0.916731 27:0.638618 28:0.13874 29:-0.0821834 30:-0.376585 31:-0.510627 32:-0.773983 33:-0.708915 34:-0.583678 35:-0.562852 36:-0.668347 37:-0.947955 38:-0.950504 39:-0.688805 40:-0.491285 41:-0.392241 42:-0.271062 43:-0.411613 44:-0.618655 45:-0.686665 46:-0.676906 47:-0.77979 48:-0.800539 49:-0.721353 50:-0.757576 51:-0.954183 52:-0.825963 53:-0.896104 54:-0.900585 55:-0.791383 56:-0.835897 57:-0.869318 58:-0.84897 59:-0.972452 60:-0.866051 
0.5 1:-0.969027 2:-0.938277 3:-0.949409 4:-0.843557 5:-0.765153 6:-0.411449 7:-0.345238 8:-0.571775 9:-0.655264 10:-0.77835 11:-0.816248 12:-0.704279 13:-0.59263 14:-0.73827 15:-0.635871 16:-0.68044 17:-0.766242 18:-0.714701 19:-0.797812 20:-0.80244 21:-0.632167 22:-0.640937 23:-0.405531 24:0.14517 25:0.693648 26:1.0 27:0.675806 28:0.305064 29:0.0998377 30:-0.294343 31:-0.400327 32:-0.629297 33:-0.696944 34:-0.572867 35:-0.401862 36:-0.558871 37:-0.902908 38:-0.924093 39:-0.832385 40:-0.596514 41:-0.476781 42:-0.401465 43:-0.487133 44:-0.755733 45:-0.735286 46:-0.735326 47:-0.862007 48:-0.739443 49:-0.660777 50:-0.866667 51:-0.842629 52:-0.68331 53:-0.74026 54:-0.853801 55:-0.863946 56:-1.0 57:-0.914773 58:-0.789474 59:-0.873278 60:-0.953811 
0.5 1:-0.715339 2:-0.845692 3:-0.923784 4:-0.927247 5:-0.724575 6:-0.725343 7:-0.686688 8:-0.801103 9:-0.729305 10:-0.71972 11:-0.780519 12:-0.723623 13:-0.681301 14:-0.728163 15:-0.669174 16:-0.642581 17:-0.737644 18:-0.735688 19:-0.810015 20:-0.835188 21:-0.595911 22:-0.46897 23:-0.21013 24:0.271181 25:0.807582 26:1.0 27:0.598067 28:0.201112 29:0.0381494 30:-0.347182 31:-0.506485 32:-0.861604 33:-0.818965 34:-0.709592 35:-0.646313 36:-0.655847 37:-0.982943 38:-0.851721 39:-0.706726 40:-0.484967 41:-0.353793 42:-0.300611 43:-0.508082 44:-0.820665 45:-0.784475 46:-0.750411 47:-0.840275 48:-0.853848 49:-0.732458 50:-0.769697 51:-0.721116 52:-0.811698 53:-0.698701 54:-0.584795 55:-0.632653 56:-0.794872 57:-0.857955 58:-0.926773 59:-0.735537 60:-0.921478 
0.5 1:-0.817109 2:-0.814831 3:-0.95138 4:-0.976224 5:-0.92493 6:-0.981725 7:-0.661255 8:-0.603528 9:-0.789427 10:-0.742028 11:-0.724373 12:-0.826495 13:-0.911041 14:-0.881407 15:-0.702478 16:-0.74883 17:-0.851414 18:-0.678338 19:-0.474648 20:-0.44542 21:-0.307546 22:0.112156 23:0.466568 24:0.745313 25:0.804918 26:0.451702 27:0.339847 28:0.391313 29:0.160714 30:-0.326728 31:-0.624196 32:-0.500337 33:-0.539011 34:-0.428723 35:-0.640176 36:-0.554839 37:-0.380057 38:-0.482583 39:-0.462366 40:-0.414161 41:-0.462189 42:-0.497924 43:-0.60869 44:-0.539036 45:-0.473984 46:-0.529073 47:-0.674756 48:-0.607068 49:-0.550732 50:-0.733333 51:-0.952191 52:-0.845934 53:-0.651948 54:-0.397661 55:-0.972789 56:-0.907692 57:-0.875 58:-0.743707 59:-0.790634 60:-0.806005 
0.5 1:-0.861357 2:-0.925418 3:-0.930355 4:-0.847836 5:-0.689576 6:-0.59097 7:-0.474567 8:-0.731422 9:-0.743521 10:-0.736022 11:-0.806324 12:-0.922333 13:-0.607888 14:-0.354233 15:-0.0424315 16:0.304295 17:0.53124 18:0.548468 19:0.611193 20:0.599529 21:0.64102 22:0.70044 23:0.760517 24:0.773384 25:0.790984 26:0.926644 27:1.0 28:0.821737 29:0.342938 30:-0.137957 31:-0.474005 32:-0.425972 33:-0.733487 34:-0.597244 35:-0.520098 36:-0.557258 37:-0.606823 38:-0.746699 39:-1.0 40:-1.0 41:-0.970353 42:-0.943346 43:-0.845597 44:-0.888946 45:-0.895081 46:-0.993143 47:-0.881565 48:-0.846062 49:-0.816254 50:-0.738182 51:-0.752988 52:-0.803138 53:-0.906494 54:-0.374269 55:-0.786848 56:-0.625641 57:-0.585227 58:-0.757437 59:-0.702479 60:-0.847575 
0.5 1:-0.724189 2:-0.915988 3:-0.796321 4:-0.913932 5:-0.624651 6:-0.233002 7:-0.393398 8:-0.756119 9:-0.632163 10:-0.640498 11:-0.842904 12:-0.990328 13:-0.691953 14:-0.428071 15:0.114054 16:0.589864 17:0.656201 18:0.59626 19:0.708815 20:0.736515 21:0.876265 22:0.877927 23:0.874748 24:1.0 25:0.943648 26:0.847781 27:0.863641 28:0.447715 29:-0.132102 30:-0.439438 31:-0.198038 32:-0.0548191 33:-0.253597 34:-0.409009 35:-0.5426 36:-0.744355 37:-0.521102 38:-0.610689 39:-0.741303 40:-0.701961 41:-0.887666 42:-0.874725 43:-0.77887 44:-0.674826 45:-0.672164 46:-0.843664 47:-0.845708 48:-0.745433 49:-0.762746 50:-0.985455 51:-0.625498 52:-0.660485 53:-0.605195 54:-0.666667 55:-0.8322 56:-0.687179 57:-0.738636 58:-0.76659 59:-0.603306 60:-0.778291 
0.5 1:-0.669617 2:-0.84312 3:-0.703679 4:-0.818355 5:-0.700735 6:-0.656006 7:-0.271104 8:-0.539581 9:-0.61232 10:-0.638782 11:-0.815965 12:-0.993259 13:-0.621419 14:-0.468289 15:0.145952 16:0.651944 17:0.724174 18:0.611636 19:0.799074 20:0.795805 21:1.0 22:0.995093 23:0.972873 24:0.95103 25:0.796926 26:0.9392 27:0.931716 28:0.512762 29:-0.129464 30:-0.316288 31:-0.0746594 32:-0.190519 33:-0.390108 34:-0.372549 35:-0.591081 36:-0.868347 37:-0.488082 38:-0.687013 39:-0.928105 40:-0.794118 41:-0.92264 42:-0.940415 43:-0.769042 44:-0.624066 45:-0.616719 46:-0.892759 47:-0.802246 48:-0.719078 49:-0.797072 50:-0.769697 51:-0.691235 52:-0.763195 53:-0.241558 54:-0.590643 55:-0.945578 56:-0.620513 57:-0.761364 58:-0.894737 59:-0.807163 60:-0.916859 
0.5 1:-0.526549 2:-0.753108 3:-0.697109 4:-0.771279 5:-0.631245 6:-0.622682 7:-0.403139 8:-0.48269 9:-0.656449 10:-0.791506 11:-0.980717 12:-0.867233 13:-0.562113 14:-0.384552 15:-0.0829572 16:0.234073 17:0.446068 18:0.551792 19:0.576688 20:0.627783 21:1.0 22:0.961967 23:0.919466 24:0.918246 25:0.819262 26:0.798656 27:0.56529 28:0.151297 29:-0.324269 30:-0.228294 31:-0.0951499 32:-0.324646 33:-0.501838 34:-0.441441 35:-0.689271 36:-0.905444 37:-0.816094 38:-0.839659 39:-0.897955 40:-0.630937 41:-0.79062 42:-0.818559 43:-0.902237 44:-0.67328 45:-0.680125 46:-0.861492 47:-0.656284 48:-0.594489 49:-0.738516 50:-0.587879 51:-0.934263 52:-0.594864 53:-0.449351 54:-0.871345 55:-0.868481 56:-0.153846 57:-0.238636 58:-0.94508 59:-0.625344 60:-0.792148 
0.5 1:-0.681416 2:-0.704243 3:-0.990145 4:-0.883024 5:-0.862034 6:-0.592583 7:-0.077381 8:-0.428445 9:-0.707389 10:-0.933076 11:-0.9189 12:-0.664127 13:-0.398301 14:-0.223471 15:0.0416291 16:0.360676 17:0.486271 18:0.534545 19:0.517778 20:0.706122 21:1.0 22:0.769553 23:0.588217 24:0.745928 25:0.808607 26:0.874436 27:0.757538 28:0.279539 29:-0.426542 30:-0.61436 31:-0.452861 32:-0.577398 33:-0.621968 34:-0.720827 35:-0.833487 36:-0.945161 37:-0.842117 38:-0.794115 39:-0.797596 40:-0.708715 41:-0.82513 42:-0.906227 43:-0.802923 44:-0.644164 45:-0.763719 46:-0.820625 47:-0.694314 48:-0.643606 49:-0.498233 50:-0.241212 51:-0.693227 52:-0.720399 53:-0.522078 54:-0.929825 55:-0.791383 56:-0.651282 57:-0.698864 58:-0.839817 59:-0.768595 60:-0.889145 
0.5 1:-0.862832 2:-0.931419 3:-0.971748 4:-0.808845 5:-0.652549 6:-0.57807 7:-0.468615 8:-0.806395 9:-0.882423 10:-0.91992 11:-0.768326 12:-0.655334 13:-0.41903 14:-0.442508 15:-0.180459 16:-0.0653369 17:0.0446586 18:0.226805 19:0.381443 20:0.554366 21:0.893128 22:1.0 23:0.924764 24:0.883618 25:0.725 26:0.536293 27:0.264839 28:-0.1338 29:-0.0675731 30:0.180356 31:-0.0306267 32:-0.37295 33:-0.315762 34:-0.337785 35:-0.830418 36:-0.880847 37:-0.993877 38:-0.983779 39:-0.721063 40:-0.552941 41:-0.694962 42:-0.85641 43:-0.958878 44:-0.799536 45:-0.81433 46:-0.942403 47:-0.815647 48:-0.768194 49:-0.735487 50:-0.755152 51:-0.679283 52:-0.940086 53:-0.620779 54:-0.391813 55:-0.650794 56:-0.723077 57:-1.0 58:-0.908467 59:-0.862259 60:-0.903002 
0.5 1:-0.684366 2:-0.688813 3:-0.983574 4:-0.849263 5:-0.803196 6:-0.274389 7:0.178571 8:-0.500331 9:-0.800089 10:-0.565852 11:-0.313767 12:-0.0849941 13:0.124802 14:-0.148809 15:0.094192 16:0.435172 17:0.613926 18:0.830649 19:1.0 20:0.875428 21:0.813659 22:0.866885 23:0.46678 24:0.00542977 25:-0.207787 26:-0.444432 27:0.36569 28:0.735076 29:0.799716 30:0.576862 31:-0.1503 32:-0.794428 33:-0.741258 34:-0.518389 35:-0.422931 36:-0.55 37:-0.784168 38:-0.652074 39:-0.55661 40:-0.417647 41:-0.710481 42:-1.0 43:-0.90922 44:-0.7042 45:-0.621552 46:-0.924301 47:-0.723651 48:-0.622043 49:-0.688036 50:-0.418182 51:-0.770916 52:-0.840228 53:-0.911688 54:-0.345029 55:-0.342404 56:-0.733333 57:-0.869318 58:-0.881007 59:-0.432507 60:-0.274827 
0.5 1:-0.874631 2:-0.838834 3:-0.908016 4:-0.795055 5:-0.60842 6:-0.512497 7:-0.137446 8:-0.110915 9:-0.223752 10:-0.177177 11:-0.162626 12:-0.0243259 13:0.0844969 14:0.0163968 15:0.388705 16:0.690617 17:1.0 18:0.849974 19:0.686514 20:0.574058 21:0.608347 22:0.759738 23:0.428208 24:0.202336 25:0.417828 26:0.660315 27:0.226599 28:-0.0687526 29:0.247362 30:0.393203 31:0.203924 32:-0.139295 33:-0.237845 34:-0.198728 35:-0.691725 36:-0.617944 37:-0.558496 38:-0.801185 39:-0.744466 40:-0.338998 41:-0.627562 42:-0.512088 43:-0.67102 44:-0.709096 45:-0.446688 46:-0.39797 47:-0.300978 48:-0.102725 49:-0.219586 50:-0.524848 51:-0.756972 52:-0.651926 53:-0.646753 54:-0.608187 55:-0.687075 56:-0.712821 57:-0.5625 58:-0.926773 59:-0.713499 60:-0.939954 
0.5 1:-0.418879 2:-0.644235 3:-0.633377 4:-0.965763 5:-0.941162 6:-0.507122 7:-0.447511 8:-0.55237 9:-0.340441 10:-0.386243 11:-0.409046 12:-0.0952521 13:0.048798 14:-0.0580592 15:0.360417 16:0.504783 17:0.900943 18:0.963844 19:0.762466 20:0.629281 21:0.485877 22:0.635416 23:0.357211 24:0.271386 25:0.37459 26:0.562507 27:0.170711 28:0.193907 29:0.772119 30:0.692554 31:0.107575 32:-0.439901 33:-0.336134 34:-0.0304187 35:-0.450752 36:-0.834879 37:-0.630002 38:-0.724654 39:-0.99241 40:-0.745316 41:-0.717197 42:-0.478632 43:-0.560067 44:-0.749807 45:-0.369633 46:-0.250686 47:-0.32126 48:-0.363881 49:-0.328622 50:-0.0181818 51:-0.7749 52:-0.942939 53:-0.838961 54:-0.444444 55:-0.482993 56:-0.574359 57:-0.670455 58:-0.734554 59:-0.84022 60:-0.667436 
0.5 1:-0.702065 2:-0.713673 3:-0.7523 4:-0.915359 5:-0.485671 6:-0.429186 7:-0.261364 8:-0.579272 9:-0.682511 10:-0.524096 11:0.07472 12:0.136284 13:0.0908306 14:-0.00897185 15:0.299629 16:0.610218 17:0.962491 18:1.0 19:0.875237 20:0.668664 21:0.600759 22:0.685104 23:0.197203 24:0.142506 25:0.53791 26:0.604362 27:0.0757433 28:-0.443186 29:-0.0127841 30:0.28156 31:0.148992 32:-0.179735 33:-0.313452 34:-0.307048 35:-0.72241 36:-0.729435 37:-0.610977 38:-0.691588 39:-0.866751 40:-0.503486 41:-0.564331 42:-0.518193 43:-0.816371 44:-0.586189 45:-0.525448 46:-0.533736 47:-0.337559 48:-0.159629 49:-0.489147 50:-0.45697 51:-0.810757 52:-0.934379 53:-0.490909 54:-0.602339 55:-0.678005 56:-0.538462 57:-0.840909 58:-0.87643 59:-0.933884 60:-0.709007 
0.5 1:-0.464602 2:-0.732533 3:-0.731932 4:-0.861151 5:-0.127568 6:-0.176028 7:-0.537879 8:-0.663947 9:-0.495335 10:-0.445159 11:-0.192968 12:-0.155334 13:0.00820498 14:-0.255027 15:0.167419 16:0.568492 17:0.945912 18:1.0 19:0.966968 20:0.702483 21:0.671796 22:0.807995 23:0.119847 24:-0.222621 25:0.169262 26:0.293535 27:0.241307 28:-0.0288184 29:0.102679 30:-0.10131 31:-0.0742234 32:-0.345316 33:-0.266618 34:-0.219502 35:-0.572261 36:-0.807258 37:-0.789853 38:-0.899969 39:-0.53658 40:-0.332898 41:-0.469832 42:-0.350916 43:-0.556964 44:-0.849523 45:-0.65027 46:-0.396599 47:-0.203912 48:-0.356694 49:-0.572943 50:-0.607273 51:-0.814741 52:-0.891583 53:-0.797403 54:-0.602339 55:-0.564626 56:-0.687179 57:-0.670455 58:-0.729977 59:-0.768595 60:-0.78291 
0.5 1:-0.483776 2:0.393913 3:0.065046 4:-0.351878 5:-0.460817 6:-0.352862 7:0.125 8:-0.0240353 9:-0.136088 10:0.035893 11:-0.219339 12:-0.955744 13:-0.281704 14:0.0568217 15:0.238439 16:0.444128 17:0.658067 18:0.353351 19:-0.167684 20:-0.301156 21:0.0735666 22:0.498006 23:0.642047 24:1.0 25:0.746311 26:0.359401 27:0.371573 28:-0.0263483 29:-0.229302 30:-0.181208 31:-0.217439 32:-0.917097 33:-0.801323 34:-0.959936 35:-0.309809 36:0.364315 37:0.470588 38:-0.3316 39:-0.949188 40:-0.366013 41:-0.164794 42:-0.0691087 43:-0.384456 44:-0.469467 45:-0.349446 46:-0.532639 47:-0.425208 48:0.0733753 49:0.0318021 50:-0.633939 51:-0.555777 52:-0.708987 53:-0.657143 54:0.140351 55:-0.283447 56:-0.697436 57:-0.573864 58:-0.583524 59:-0.399449 60:-0.713626 
0.5 1:-0.744838 2:-0.687955 3:-0.383706 4:-0.635758 5:-0.907685 6:-0.792529 7:-0.247294 8:-0.154576 9:-0.467496 10:-0.515802 11:-0.475401 12:-0.622802 13:-0.484382 14:-0.0572342 15:0.45792 16:0.556076 17:0.566055 18:0.194182 19:-0.220282 20:-0.539598 21:-0.0227656 22:0.502914 23:0.702448 24:1.0 25:0.683811 26:0.294416 27:0.363589 28:0.144298 29:-0.0608766 30:-0.0224779 31:-0.180599 32:-0.733094 33:-0.749869 34:-0.920297 35:-0.234121 36:0.424798 37:0.523726 38:-0.349901 39:-0.954038 40:-0.439434 41:-0.110596 42:-0.0676435 43:-0.368938 44:-0.484669 45:-0.344043 46:-0.482721 47:-0.290112 48:0.0188679 49:0.379101 50:-0.0351515 51:-0.715139 52:-0.757489 53:-0.854545 54:-0.397661 55:-0.891156 56:-0.728205 57:-0.505682 58:-0.75286 59:-0.630854 60:-0.916859 
0.5 1:0.240413 2:-0.615945 3:-0.75887 4:-0.931051 5:-0.838701 6:-0.767804 7:0.140152 8:0.347299 9:-0.181993 10:-0.245531 11:-0.314334 12:-0.791911 13:-0.759321 14:-0.124265 15:0.345371 16:0.330552 17:0.39198 18:0.0923636 19:-0.307595 20:-0.558005 21:0.0086425 22:0.529087 23:0.712409 24:0.857392 25:0.871311 26:0.173257 27:0.164618 28:0.343351 29:-0.00507305 30:0.0998189 31:-0.0687738 32:-0.551561 33:-0.516539 34:-0.621622 35:0.0395827 36:0.477621 37:0.623442 38:-0.159613 39:-0.779675 40:-0.26122 41:-0.0452808 42:0.0139194 43:-0.210138 44:-0.424117 45:-0.257606 46:-0.232584 47:-0.133647 48:0.210542 49:0.338718 50:-0.132121 51:-0.74502 52:-0.532097 53:-0.309091 54:-0.596491 55:-0.85941 56:-0.758974 57:0.448864 58:-0.546911 59:-0.801653 60:-0.856813 
0.5 1:-0.617994 2:-0.797685 3:-0.60184 4:-0.761293 5:-0.461324 6:-0.531846 7:-0.0313853 8:-0.254686 9:-0.595735 10:-0.51523 11:-0.411031 12:-0.803634 13:-0.549446 14:-0.228834 15:0.0344067 16:0.455323 17:0.805616 18:0.846234 19:0.46013 20:-0.185146 21:-0.0322513 22:0.376751 23:0.524213 24:0.664788 25:0.443238 26:0.206741 27:0.10894 28:-0.205023 29:-0.320008 30:-0.185256 31:-0.524142 32:-0.636037 33:-0.692324 34:-0.882777 35:-0.283625 36:0.161895 37:-0.0212115 38:-0.591557 39:-0.867594 40:-0.318736 41:-0.159236 42:-0.287179 43:-0.564464 44:-0.546251 45:-0.521467 46:-0.800055 47:-0.568997 48:-0.223121 49:-0.244826 50:-0.837576 51:-0.492032 52:-0.700428 53:-0.464935 54:-0.561404 55:-0.814059 56:-0.641026 57:-0.426136 58:-0.276888 59:0.206612 60:-0.228637 
0.5 1:-0.675516 2:-0.755679 3:-0.51774 4:-0.780789 5:-0.918844 6:-0.606557 7:-0.651515 8:-0.141345 9:-0.170443 10:0.018447 11:-0.238622 12:-0.823857 13:-0.502519 14:-0.0168093 15:0.268131 16:0.351923 17:0.482955 18:0.292468 19:-0.15527 20:-0.505993 21:-0.26075 22:0.344443 23:0.63908 24:1.0 25:0.639344 26:0.364467 27:0.522219 28:0.202141 29:-0.0275974 30:0.0727602 31:-0.0356403 32:-0.681869 33:-0.719836 34:-0.810281 35:-0.10402 36:0.324597 37:0.327794 38:-0.629198 39:-0.666878 40:0.0522876 41:0.0573248 42:-0.026862 43:-0.378766 44:-0.64133 45:-0.494171 46:-0.466264 47:-0.375951 48:-0.0883498 49:-0.0620899 50:-0.566061 51:-0.517928 52:-0.78602 53:-0.833766 54:-0.502924 55:-0.55102 56:-0.866667 57:-0.267045 58:-0.702517 59:-0.410468 60:-0.612009 
0.5 1:-0.836283 2:-0.560223 3:-0.60184 4:-0.781265 5:-0.490236 6:0.335662 7:0.228896 8:-0.112679 9:-0.0105138 10:0.192907 11:-0.226996 12:-0.715416 13:-0.10321 14:0.120759 15:0.390511 16:0.951761 17:1.0 18:0.853091 19:0.202609 20:-0.158818 21:-0.0537521 22:-0.0158471 23:0.381583 24:0.676263 25:0.6125 26:0.491133 27:0.601849 28:0.218403 29:-0.551136 30:-0.577714 31:0.268011 32:0.428443 33:-0.490497 34:-0.113725 35:0.69909 36:0.431452 37:-0.026897 38:0.138193 39:-0.0255113 40:-0.401089 41:-0.944181 42:-0.728694 43:-0.292125 44:-0.275444 45:-0.409156 46:-0.81898 47:-0.822166 48:-0.793351 49:-0.82635 50:-0.304242 51:-0.946215 52:-0.429387 53:-0.776623 54:0.105263 55:-0.455782 56:-0.907692 57:-0.806818 58:-0.858124 59:-0.37741 60:-0.672055 
0.5 1:-0.648968 2:-0.312473 3:-0.676741 4:-0.911555 5:-0.159523 6:1.0 7:1.0 8:0.555899 9:-0.00666371 10:-0.403975 11:-0.329647 12:-0.12456 13:0.554052 14:0.370114 15:0.587321 16:0.422756 17:-0.344524 18:-0.660675 19:-0.540922 20:-0.220248 21:0.00505902 22:-0.331357 23:-0.816255 24:0.0683332 25:0.24959 26:0.49598 27:0.335645 28:0.591396 29:0.608969 30:0.639928 31:0.59346 32:0.0435857 33:-0.803423 34:-0.4584 35:-0.00562545 36:-0.0510081 37:-0.780232 38:-0.601539 39:-0.490196 40:-0.190414 41:-0.404053 42:-0.731624 43:-0.559033 44:-0.666581 45:-0.741541 46:-0.780581 47:-0.79464 48:-0.881402 49:-0.884907 50:-0.633939 51:-0.830677 52:-0.514979 53:-0.646753 54:-0.596491 55:-0.854875 56:-0.425641 57:-0.829545 58:-0.83524 59:-0.559229 60:-0.78291 
0.5 1:-0.638643 2:-0.840549 3:-0.84297 4:-0.998573 5:-0.85544 6:-0.678044 7:-0.334416 8:-0.54796 9:-0.571154 10:-0.566138 11:-0.789877 12:-0.428195 13:-0.60904 14:-0.51387 15:-0.416391 16:-0.426827 17:-0.927469 18:-0.786805 19:-0.474858 20:-0.30244 21:-0.349494 22:-0.55342 23:-0.227509 24:0.11382 25:0.19959 26:0.189999 27:0.274924 28:0.520996 29:1.0 30:0.672526 31:0.0958038 32:-0.0923388 33:-0.0145962 34:-0.140223 35:-0.676997 36:-0.856653 37:-0.959764 38:-0.683269 39:-0.538267 40:-0.556427 41:-0.442038 42:-0.319902 43:-0.551791 44:-0.790003 45:-0.904748 46:-0.744103 47:-0.631293 48:-0.814915 49:-0.790005 50:-0.229091 51:-0.737052 52:-0.686163 53:-0.402597 54:-0.760234 55:-0.709751 56:-0.94359 57:-0.818182 58:-0.977117 59:-0.763085 60:-0.672055 
0.5 1:-0.345133 2:-0.630519 3:-0.781866 4:-0.810747 5:-1.0 6:-0.576458 7:-0.0449134 8:-0.25645 9:-0.548941 10:-0.62963 11:-0.318304 12:-0.114009 13:0.255506 14:0.136846 15:-0.109239 16:-0.578872 17:-0.623873 18:-0.412779 19:-0.490637 20:-0.233947 21:-0.167791 22:-0.558123 23:0.240225 24:0.788136 25:0.778279 26:0.455667 27:0.335645 28:0.668588 29:1.0 30:0.651007 31:0.0779292 32:-0.0624579 33:0.594035 34:0.433174 35:-0.244758 36:-0.702016 37:-0.727312 38:-0.630238 39:0.0134936 40:0.0163399 41:-0.540475 42:-0.134799 43:-0.27971 44:-0.534398 45:-0.899915 46:-0.870269 47:-0.883376 48:-0.755615 49:-0.835437 50:-0.786667 51:-0.758964 52:-0.831669 53:-0.85974 54:-0.421053 55:-0.283447 56:-0.246154 57:-0.619318 58:-0.624714 59:-0.360882 60:-0.769053 
0.5 1:-0.985251 2:-0.740249 3:-0.897503 4:-0.919163 5:-0.813847 6:-0.396936 7:0.0357143 8:-0.291731 9:-0.617059 10:-0.623338 11:-0.800085 12:-0.40973 13:-0.349359 14:-0.388264 15:-0.396529 16:-0.542438 17:-0.99627 18:-0.730494 19:-0.464759 20:-0.269478 21:-0.346332 22:-0.637051 23:-0.1421 24:0.354369 25:0.440984 26:0.372618 27:0.391113 28:0.694524 29:1.0 30:0.50783 31:-0.0498093 32:-0.255673 33:0.18009 34:0.0382618 35:-0.516621 36:-0.831452 37:-0.86967 38:-0.604035 39:-0.344508 40:-0.569063 41:-0.64308 42:-0.295482 43:-0.428165 44:-0.607318 45:-0.787887 46:-0.83379 47:-0.749366 48:-0.732854 49:-0.652701 50:-0.801212 51:-0.784861 52:-0.597718 53:-0.625974 54:-0.847953 55:-0.510204 56:-0.584615 57:-0.443182 58:-0.940503 59:-0.85124 60:-0.963048 
0.5 1:-0.59292 2:-0.662237 3:-0.503285 4:-0.642891 5:-0.769718 6:-0.489922 7:-0.939394 8:-0.727012 9:-0.638975 10:-0.704562 11:-0.814831 12:-0.83646 13:-0.980423 14:-0.810663 15:-0.796569 16:-0.615713 17:-0.74987 18:-0.518961 19:-0.307806 20:-0.27911 21:-0.376476 22:-0.759534 23:-0.863304 24:-0.469726 25:-0.741803 26:-0.624408 27:-0.162307 28:0.489502 29:0.804383 30:0.533823 31:-0.066158 32:-0.532914 33:0.0280374 34:0.286063 35:-0.299581 36:-0.0943548 37:0.313798 38:0.266715 39:0.0855998 40:-0.316776 41:-0.552519 42:-0.854212 43:-1.0 44:-1.0 45:-1.0 46:-1.0 47:-1.0 48:-1.0 49:-1.0 50:-1.0 51:-1.0 52:-0.863053 53:0.205195 54:0.134503 55:-0.800454 56:-0.317949 57:-0.0852273 58:-0.643021 59:-0.239669 60:-0.515012 
0.5 1:-0.755162 2:-0.879983 3:-0.992773 4:-0.960533 5:-0.820441 6:-0.800591 7:-0.822511 8:-0.697464 9:-0.608174 10:-0.733448 11:-0.825606 12:-0.872509 13:-0.765942 14:-0.838507 15:-0.936804 16:-0.782414 17:-0.735364 18:-0.319065 19:-0.417631 20:-0.499358 21:-0.663364 22:-0.614559 23:-0.67744 24:-0.581395 25:-0.896107 26:-0.769138 27:-0.242567 28:0.255867 29:0.588068 30:0.469053 31:0.0975477 32:-0.59335 33:-0.118975 34:-0.0954955 35:-0.575739 36:-0.363911 37:-0.0970916 38:0.0810024 39:0.296437 40:0.140959 41:-0.509438 42:-0.459829 43:-0.537566 44:-0.768616 45:-0.847597 46:-0.897422 47:-0.641434 48:-0.427373 49:-0.67996 50:-0.655758 51:-0.848606 52:-0.386591 53:0.298701 54:-0.210526 55:0.0294785 56:-0.810256 57:-0.914773 58:-0.79405 59:-0.515152 60:-0.635104 
-0.32330435968897253 1:-0.297935 2:-0.765967 3:-0.620894 4:-0.42368 5:-0.135176 6:-0.0292932 7:0.181818 8:-0.685557 9:-0.653191 10:-0.452309 11:-0.813413 12:-0.337339 13:-0.417015 14:-0.397339 15:-0.336142 16:-0.356605 17:-0.496218 18:-0.45974 19:-0.483695 20:-0.770334 21:-0.419899 22:-0.260812 23:-0.372682 24:0.0595226 25:0.0221311 26:-0.217094 27:0.0209056 28:0.0372581 29:-0.236404 30:-0.394269 31:-0.213297 32:-0.0485284 33:0.0717211 34:0.169051 35:0.254373 36:0.508669 37:0.432757 38:0.204742 39:0.0558718 40:0.199346 41:0.423972 42:0.157753 43:-0.0337515 44:-0.277506 45:-0.436452 46:-0.331322 47:-0.352046 48:0.0218628 49:-0.230692 50:-0.42303 51:-0.466135 52:-0.791726 53:-0.355844 54:-0.116959 55:-0.741497 56:-0.410256 57:0.0852273 58:-0.372998 59:0.823691 60:1.0 
-0.5 1:-0.725664 2:-0.64252 3:-0.645861 4:-0.655254 5:-0.719503 6:-0.58667 7:-0.367965 8:0.16957 9:-0.665038 10:-0.952524 11:-0.443641 12:-0.302755 13:-0.5434 14:-0.291327 15:-0.0968001 16:0.0972929 17:-0.115739 18:-0.288935 19:-0.378077 20:-0.569991 21:-0.603078 22:-0.814334 23:-0.57762 24:0.0101424 25:-0.274795 26:-0.303668 27:0.0236369 28:-0.005352 29:-0.107143 30:-0.223394 31:-0.261689 32:-0.205796 33:-0.121285 34:-0.202544 35:-0.596809 36:-0.65 37:-0.853051 38:-0.64126 39:-0.392368 40:-0.220044 41:-0.408917 42:-0.278632 43:-0.337127 44:-0.503478 45:-0.413705 46:-0.519748 47:-0.6954 48:-0.380054 49:-0.352852 50:-0.629091 51:-0.838645 52:-0.477889 53:-0.0805195 54:-0.122807 55:0.287982 56:-0.558974 57:0.357955 58:0.0114416 59:0.0413223 60:-0.584296 
-0.2975390700736248 1:-0.0943953 2:-0.092156 3:-0.00722733 4:-0.443176 5:-0.305098 6:-0.415211 7:-0.539502 8:-0.624256 9:-0.398193 10:-0.003575 11:0.468028 12:0.456331 13:0.42306 14:0.0564092 15:0.309459 16:0.738856 17:0.955652 18:0.861818 19:0.56175 20:0.439854 21:0.348229 22:-0.25754 23:-0.977111 24:-0.946112 25:-0.492418 26:-0.577487 27:-0.631684 28:-0.665089 29:-0.946429 30:-0.59135 31:-0.673678 32:-0.665918 33:-0.589205 34:-0.630313 35:-0.500051 36:-0.745968 37:-0.842117 38:-0.658937 39:-0.699979 40:-0.976035 41:-0.77927 42:-0.58022 43:-0.599379 44:-0.581036 45:-0.798692 46:-0.964619 47:-0.712061 48:-0.543576 49:-0.881878 50:-0.852121 51:-0.488048 52:-0.768902 53:0.335065 54:-0.426901 55:-0.401361 56:-0.0615385 57:0.289773 58:-0.75286 59:-0.38292 60:-0.422633 
-0.19573237833628435 1:-0.156342 2:0.0321474 3:-0.176741 4:-0.315264 5:-0.305605 6:-0.753292 7:-0.567641 8:-0.727894 9:-0.615874 10:-0.359645 11:-0.172267 12:0.178488 13:0.444364 14:-0.0427967 15:0.187481 16:0.4368 17:0.80085 18:0.815273 19:0.731328 20:0.504709 21:0.436341 22:0.0230038 23:-0.462965 24:-0.399037 25:-0.584016 26:-0.841613 27:-0.734216 28:-0.680733 29:-0.613636 30:-0.773943 31:-0.501907 32:-0.393395 33:-0.386328 34:-0.103551 35:-0.0133988 36:-0.44879 37:-0.709162 38:-0.532079 39:-0.403964 40:-0.604357 41:-0.867053 42:-0.905495 43:-0.798267 44:-0.813965 45:-0.884845 46:-0.848327 47:-0.608475 48:-0.31776 49:-0.225644 50:-0.357576 51:-0.571713 52:-0.0784593 53:-0.449351 54:-0.54386 55:-0.310658 56:-0.394872 57:-0.801136 58:-0.551487 59:0.250689 60:-0.454965 
-0.5 1:-0.390855 2:-0.529361 3:-0.544678 4:-0.733714 5:-0.417702 6:-0.235689 7:-0.1829 8:-0.851819 9:-0.841552 10:-1.0 11:-0.726074 12:-0.344373 13:-0.186124 14:-0.28349 15:-0.0994082 16:0.0645227 17:0.292923 18:0.400104 19:0.495477 20:0.715753 21:0.666105 22:0.585727 23:0.65773 24:0.860055 25:0.703893 26:0.154532 27:-0.231432 28:-0.38555 29:-0.398539 30:-0.586449 31:-0.371117 32:-0.0876208 33:-0.0500893 34:0.0384738 35:0.0168763 36:-0.084879 37:-0.150886 38:-0.170427 39:-0.176471 40:-0.059695 41:-0.226404 42:-0.201954 43:-0.336868 44:-0.348879 45:-0.39238 46:-0.509325 47:-0.634191 48:-0.683738 49:-0.542655 50:-0.713939 51:-0.982072 52:-0.617689 53:-0.0961039 54:-0.596491 55:-0.755102 56:-0.348718 57:-0.511364 58:-0.629291 59:-0.38292 60:-0.801386 
-0.005513378287206272 1:-0.632743 2:-0.944278 3:-0.785151 4:-0.650499 5:-0.504945 6:-0.633969 7:-0.251082 8:-0.505623 9:-0.88805 10:-0.762048 11:-0.760953 12:-0.822978 13:-0.846552 14:-0.650407 15:-0.477982 16:-0.179931 17:-0.0258004 18:0.316571 19:0.562802 20:0.653467 21:0.738406 22:0.881812 23:1.0 24:0.985862 25:0.91291 26:0.70195 27:0.414855 28:0.135653 29:-0.0219156 30:-0.089592 31:-0.215913 32:-0.541901 33:-0.728867 34:-0.520933 35:-0.325969 36:-0.257661 37:-0.44063 38:-0.599043 39:-0.410289 40:-0.251198 41:-0.216908 42:0.0713065 43:-0.156602 44:-0.494203 45:-0.754336 46:-0.537027 47:-0.278884 48:-0.271039 49:-0.365977 50:-0.21697 51:-0.496016 52:-0.412268 53:0.335065 54:-0.0233918 55:-0.85941 56:-0.671795 57:-0.329545 58:-0.661327 59:-0.575758 60:-0.722864 
-0.5 1:-0.411504 2:-0.631376 3:-0.716163 4:-0.626248 5:-0.821456 6:-0.401774 7:0.0654762 8:-0.355678 9:-0.77995 10:-0.467467 11:-0.427194 12:-0.182591 13:0.0807543 14:-0.0147468 15:0.171833 16:0.312436 17:0.464719 18:0.585662 19:0.675153 20:0.558861 21:0.747892 22:0.669563 23:0.544771 24:0.688352 25:0.47418 26:0.214231 27:0.057464 28:-0.334088 29:-0.386364 30:-0.417705 31:-0.656894 32:-0.858908 33:-0.434842 34:-0.188553 35:-0.169684 36:-0.10121 37:-0.266783 38:-0.301653 39:-0.268817 40:-0.26427 41:-0.0689056 42:0.0278388 43:-0.261865 44:-0.276475 45:-0.319022 46:-0.898793 47:-0.708439 48:-0.675951 49:-0.821302 50:-0.842424 51:-0.557769 52:-0.894437 53:-0.319481 54:-0.397661 55:-0.786848 56:-0.174359 57:-0.215909 58:-0.661327 59:0.349862 60:-0.113164 
-0.2024609299263752 1:-0.637168 2:-0.777111 3:-0.863338 4:-0.671422 5:-0.342125 6:-0.241602 7:-0.305736 8:-0.294818 9:-0.470161 10:-0.456599 11:-0.262442 12:5.86166E-4 13:-0.0424644 14:-0.335465 15:-0.138529 16:0.0657439 17:0.220184 18:0.350857 19:0.438039 20:0.59482 21:0.661889 22:0.720274 23:0.73445 24:0.919475 25:0.941803 26:0.806366 27:0.700809 28:0.752573 29:0.537338 30:0.086183 31:-0.175586 32:-0.448214 33:-0.446183 34:-0.606995 35:-0.807303 36:-0.978831 37:-0.79204 38:-0.563897 39:-0.73308 40:-0.785185 41:-0.586798 42:-0.517216 43:-0.511962 44:-0.646998 45:-0.608757 46:-0.915798 47:-0.864904 48:-0.637017 49:-0.597173 50:-0.590303 51:-0.731076 52:-0.389444 53:-0.116883 54:-0.315789 55:-0.927438 56:-0.384615 57:-0.710227 58:-0.91762 59:-0.85124 60:-0.921478 
-0.5 1:-0.511799 2:-0.568796 3:-0.95795 4:-0.91203 5:-0.814862 6:-0.659769 7:-0.510281 8:-0.524146 9:-0.658522 10:-0.60103 11:-0.568978 12:-0.368699 13:-0.204549 14:-0.465195 15:-0.201725 16:0.0508854 17:0.0645529 18:0.132052 19:0.167052 20:0.304152 21:0.385329 22:0.568551 23:0.848257 24:0.955128 25:0.946311 26:1.0 27:0.937388 28:0.990943 29:0.641843 30:0.152019 31:0.0594005 32:0.00269602 33:-0.359656 34:-0.712984 35:-0.852102 36:-0.690927 37:-0.459217 38:-0.374649 39:-0.441704 40:-0.383878 41:-0.393631 42:-0.360195 43:-0.468512 44:-0.46689 45:-0.537958 46:-0.666484 47:-0.633104 48:-0.554358 49:-0.610298 50:-0.878788 51:-0.709163 52:-0.908702 53:-0.392208 54:-0.432749 55:-0.519274 56:-0.497436 57:-0.721591 58:-0.90389 59:-0.570248 60:-0.884527 
-0.5 1:-0.654867 2:-0.903129 3:-0.827858 4:-0.666191 5:-0.416181 6:-0.228164 7:-0.372835 8:-0.482249 9:-0.394639 10:-0.308451 11:-0.272366 12:-0.201348 13:-0.0911185 14:-0.172115 15:0.0380179 16:0.205984 17:0.42721 18:0.496519 19:0.521565 20:0.592894 21:0.788153 22:0.846028 23:0.865423 24:0.96988 25:0.954098 26:1.0 27:0.978149 28:0.809798 29:0.453328 30:0.0961969 31:-0.130899 32:-0.255224 33:-0.663551 34:-0.842501 35:-0.945791 36:-0.732661 37:-0.518259 38:-0.65249 39:-0.73793 40:-0.539216 41:-0.672727 42:-0.453724 43:-0.347989 44:-0.622778 45:-0.808644 46:-0.735326 47:-0.459616 48:-0.324349 49:-0.532559 50:-0.532121 51:-0.721116 52:-0.945792 53:-0.672727 54:-0.181287 55:-0.972789 56:-0.338462 57:-0.744318 58:0.102975 59:-0.581267 60:-0.685912 
-0.5 1:-0.623894 2:-0.865409 3:-0.785808 4:-0.910128 5:-0.617043 6:-0.379737 7:-0.301948 8:-0.325689 9:-0.424848 10:-0.425425 11:-0.455267 12:-0.366061 13:-0.199655 14:-0.218727 15:0.0159494 16:0.0889477 17:0.298104 18:0.335896 19:0.267831 20:0.3125 21:0.538575 22:0.666496 23:0.781498 24:0.970495 25:1.0 26:0.866725 27:0.772455 28:0.609922 29:0.356331 30:0.0565676 31:-0.16752 32:-0.340598 33:-0.672792 34:-0.875782 35:-0.880127 36:-0.708669 37:-0.502515 38:-0.568888 39:-0.660763 40:-0.5 41:-0.52542 42:-0.549451 43:-0.462822 44:-0.544705 45:-0.681831 46:-0.786341 47:-0.51322 48:-0.424978 49:-0.396265 50:-0.2 51:-0.60757 52:-0.483595 53:0.0337662 54:-0.561404 55:-0.8322 56:-0.548718 57:-0.232955 58:-0.583524 59:-0.426997 60:-0.598152 
-0.5 1:-0.685841 2:-0.273896 3:-0.352825 4:-0.824061 5:-0.467411 6:-0.167428 7:-0.15368 8:-0.0910695 9:-0.0463498 10:-0.026455 11:-0.137672 12:-0.00146542 13:0.104362 14:-0.0805404 15:0.0362123 16:0.304905 17:0.673816 18:0.683325 19:0.651588 20:0.668878 21:0.578204 22:0.700849 23:0.924128 24:1.0 25:0.868238 26:0.869809 27:0.804601 28:0.40387 29:0.253247 30:0.0768084 31:-0.341907 32:-0.541002 33:-0.743568 34:-0.347536 35:-0.294057 36:-0.546169 37:-0.549092 38:-0.548092 39:-0.679317 40:-0.602832 41:-0.371395 42:-0.333578 43:-0.920341 44:-0.68101 45:-0.472846 46:-0.519199 47:-0.6092 48:-0.563941 49:-0.755679 50:-0.53697 51:-0.683267 52:-0.532097 53:-0.0337662 54:0.461988 55:-0.39229 56:-0.379487 57:-0.357955 58:-0.588101 59:-0.939394 60:-0.861432 
-0.30264216471059063 1:0.0324484 2:-0.277325 3:-0.624179 4:-0.923918 5:-0.596754 6:-0.0868046 7:0.0189394 8:-0.188093 9:-0.145565 10:0.164879 11:0.298171 12:0.469226 13:0.662588 14:0.357533 15:0.713713 16:0.945044 17:0.729147 18:0.732156 19:0.779928 20:0.983305 21:0.784992 22:0.623351 23:0.655187 24:0.496158 25:0.158402 26:0.00605794 27:0.0845677 28:0.0543434 29:-0.0586445 30:-0.18483 31:-0.298965 32:-0.512469 33:-0.789772 34:-0.675464 35:-0.794211 36:-0.695968 37:-0.682484 38:-0.781013 39:-0.726755 40:-0.452505 41:-0.565953 42:-0.711111 43:-0.775249 44:-0.460964 45:-0.573784 46:-0.814591 47:-0.674393 48:-0.444744 49:-0.335689 50:-0.791515 51:-0.569721 52:-0.586305 53:-0.397403 54:-0.497076 55:-0.138322 56:-0.805128 57:-0.642045 58:-0.560641 59:-0.548209 60:-0.454965 
-0.36970264966500854 1:-0.713864 2:-0.781397 3:-0.931012 4:-0.662387 5:-0.494294 6:-0.151841 7:0.614177 8:0.501654 9:-0.0407226 10:0.147433 11:0.0361548 12:-0.678195 13:0.277674 14:1.0 15:0.826863 16:0.654793 17:0.377059 18:0.548052 19:0.745214 20:0.679152 21:0.772344 22:0.89224 23:1.0 24:0.789981 25:0.55041 26:0.630135 27:0.265049 28:-0.122273 29:-0.0689935 30:-0.408118 31:-0.506267 32:-0.87104 33:-1.0 34:-0.747536 35:-0.670451 36:-0.583065 37:-0.798819 38:-0.682021 39:-0.363272 40:-0.275163 41:-0.534684 42:-0.721856 43:-0.310746 44:-0.333419 45:-0.603924 46:-0.702962 47:-0.499095 48:-0.208745 49:0.0792529 50:-0.212121 51:-0.370518 52:-0.8602 53:-0.2 54:-0.561404 55:0.659864 56:-0.502564 57:-0.295455 58:0.304348 59:-0.294766 60:-0.921478 
-0.5 1:-0.470501 2:-0.502786 3:-0.59724 4:-0.773657 5:-0.904641 6:-0.290513 7:0.103355 8:0.181477 9:-0.112987 10:-0.289575 11:-0.0942861 12:0.102872 13:0.263855 14:0.170878 15:0.583509 16:0.650723 17:0.603564 18:0.787429 19:0.963812 20:0.782106 21:0.76602 22:0.870565 23:0.813924 24:0.577093 25:0.327459 26:0.188897 27:-0.0788948 28:-0.361054 29:-0.0487013 30:-0.316288 31:-0.434768 32:-0.806111 33:-0.944135 34:-0.724854 35:-0.655723 36:-0.649798 37:-0.70304 38:-0.882916 39:-0.481763 40:-0.370588 41:-0.712334 42:-0.651526 43:-0.256433 44:-0.472559 45:-0.697469 46:-0.617389 47:-0.61427 48:-0.684337 49:-0.601212 50:-0.556364 51:-0.296813 52:-0.686163 53:-0.698701 54:0.327485 55:-0.882086 56:-0.574359 57:-0.3125 58:-0.496568 59:-0.465565 60:-0.445727 
-0.3042676216637157 1:-0.780236 2:-0.467638 3:-0.524967 4:-0.738469 5:-0.9158 6:-0.491535 7:-0.293831 8:-0.740243 9:-0.57145 10:-0.809238 11:-0.574082 12:-0.283411 13:-0.538218 14:-0.842013 15:-0.608988 16:-0.37472 17:-0.295617 18:-0.540571 19:-0.329687 20:-0.389555 21:0.0737774 22:0.0248441 23:0.0397372 24:0.375884 25:0.252459 26:0.285604 27:0.684631 28:0.593454 29:0.302557 30:0.699798 31:0.345613 32:0.11548 33:-0.445343 34:-0.247271 35:-0.47264 36:-0.839718 37:-0.350973 38:-0.198503 39:-0.698503 40:-0.210022 41:-0.0116966 42:-0.619536 43:-0.354972 44:-0.174955 45:-0.355985 46:-0.685683 47:-0.827599 48:-0.43516 49:-0.168097 50:-0.585455 51:-0.513944 52:-0.286733 53:-0.283117 54:0.263158 55:-0.179138 56:-0.0717949 57:-0.392045 58:-0.583524 59:-0.575758 60:-0.510393 
-0.5 1:-0.713864 2:-0.766824 3:-0.934297 4:-0.815977 5:-0.817398 6:-0.643107 7:-0.228896 8:-0.393605 9:-0.461276 10:-0.50236 11:-0.586275 12:-0.61313 13:-0.628041 14:-0.772094 15:-0.487812 16:-0.25402 17:-0.0809243 18:0.0358442 19:0.198822 20:0.553082 21:0.844857 22:1.0 23:0.805023 24:0.474439 25:0.0895492 26:-0.50413 27:-0.828974 28:-0.935364 29:-0.476867 30:-0.360179 31:-0.387248 32:-7.80626E-18 33:-0.273548 34:-0.653842 35:-0.975657 36:-0.514315 37:-0.2377 38:-0.348861 39:-0.518659 40:-0.642048 41:-0.713028 42:-0.802198 43:-0.847407 44:-0.790518 45:-0.860108 46:-0.885628 47:-0.820717 48:-0.780174 49:-0.883897 50:-0.713939 51:-0.73506 52:-0.74893 53:-0.953247 54:-0.77193 55:-0.85034 56:-0.871795 57:-0.573864 58:-0.798627 59:-0.889807 60:-0.976905 
-0.5 1:-0.681416 2:-0.735105 3:-0.89816 4:-0.920114 5:-0.826021 6:-0.992475 7:-0.897186 8:-0.669239 9:-0.321783 10:-0.328471 11:-0.445342 12:-0.623681 13:-0.55434 14:-0.417139 15:-0.127495 16:0.105842 17:0.341001 18:0.202909 19:0.327372 20:0.665026 21:0.983347 22:1.0 23:0.572534 24:0.0628009 25:-0.239344 26:-0.0620112 27:0.0860384 28:-0.432277 29:-0.647524 30:-0.286886 31:-0.606757 32:-0.294541 33:-0.220834 34:-0.536619 35:-0.667792 36:-0.258065 37:-0.129674 38:-0.325569 39:-0.547122 40:-0.618083 41:-0.841112 42:-0.442491 43:-0.485064 44:-0.716568 45:-0.805516 46:-0.916895 47:-0.755886 48:-0.529799 49:-0.540636 50:-0.403636 51:-0.699203 52:-0.666191 53:-0.838961 54:-0.339181 55:-0.8322 56:-0.435897 57:-0.721591 58:-0.597254 59:-0.961433 60:-0.602771 
-0.5 1:-0.678466 2:-0.667381 3:-0.736531 4:-0.767475 5:-0.530307 6:-0.240527 7:-0.112013 8:-0.357001 9:-0.511921 10:-0.438009 11:-0.730611 12:-1.0 13:-0.543112 14:-0.413839 15:-0.00511586 16:0.33218 17:0.51404 18:0.685195 19:0.958973 20:1.0 21:1.0 22:0.998364 23:0.802268 24:0.344944 25:-0.00348361 26:-0.164005 27:-0.0547326 28:0.216962 29:0.425933 30:0.215085 31:-0.330354 32:-0.439901 33:-0.193741 34:-0.241335 35:-0.550373 36:-0.825806 37:-1.0 38:-0.904128 39:-0.986296 40:-0.779303 41:-0.609728 42:-0.540659 43:-0.784301 44:-0.612986 45:-0.523742 46:-0.709819 47:-0.59761 48:-0.491465 49:-0.398284 50:-0.512727 51:-0.858566 52:-0.726106 53:-0.703896 54:-0.906433 55:-0.913832 56:-0.707692 57:-0.801136 58:-0.551487 59:-0.575758 60:-1.0 
-0.5 1:-0.849558 2:-0.945992 3:-0.826544 4:-0.750357 5:-0.569871 6:-0.373824 7:-0.164502 8:-0.174421 9:-0.322968 10:-0.411983 11:-0.747342 12:-0.848183 13:-0.252051 14:-0.281221 15:0.0155482 16:0.308773 17:0.393016 18:0.487169 19:0.654324 20:0.698844 21:0.918845 22:0.966875 23:0.725548 24:0.262985 25:-0.0108607 26:-0.0144289 27:0.355815 28:0.688555 29:0.637378 30:0.139661 31:-0.462016 32:-0.47113 33:-0.494277 34:-0.643667 35:-0.749821 36:-0.823589 37:-0.882572 38:-0.905792 39:-0.889732 40:-0.688453 41:-0.546497 42:-0.47033 43:-0.732316 44:-0.556558 45:-0.4265 46:-0.509874 47:-0.597247 48:-0.761605 49:-0.692075 50:-0.796364 51:-0.922311 52:-0.871612 53:-0.875325 54:-0.94152 55:-0.968254 56:-0.871795 57:-0.903409 58:-0.729977 59:-0.862259 60:-0.787529 
-0.5 1:-0.710914 2:-0.895414 3:-1.0 4:-0.8136 5:-0.673345 6:-0.214727 7:-0.196429 8:-0.492393 9:-0.528802 10:-0.647648 11:-0.859351 12:-0.961606 13:-0.699727 14:-0.51717 15:-0.147557 16:0.213108 17:0.468449 18:0.611429 19:0.790869 20:0.915026 21:0.823356 22:0.824149 23:0.544559 24:0.00297101 25:-0.344467 26:-0.478136 27:-0.560878 28:-0.299918 29:0.140625 30:0.188239 31:-0.0995095 32:-0.278589 33:-0.168959 34:-0.225861 35:-0.412908 36:-0.585081 37:-0.833588 38:-0.791411 39:-0.757116 40:-0.808497 41:-0.702606 42:-0.549206 43:-0.660416 44:-0.542386 45:-0.431334 46:-0.790181 47:-0.73669 48:-0.551363 49:-0.546694 50:-0.675152 51:-0.653386 52:-0.689016 53:-0.906494 54:-0.783626 55:-0.804989 56:-0.861538 57:-0.880682 58:-0.83524 59:-0.724518 60:-0.95843 
-0.3276551856244008 1:-0.675516 2:-0.816545 3:-0.900131 4:-0.782216 5:-0.655592 6:-0.452298 7:-0.337121 8:-0.267034 9:-0.111802 10:-0.117403 11:-0.246562 12:-0.341149 13:-0.330358 14:-0.68382 15:-0.72274 16:-0.418482 17:-0.319034 18:-0.270234 19:-0.476962 20:-0.665454 21:-0.765599 22:-0.770167 23:-0.685705 24:-0.272206 25:0.133402 26:0.459192 27:0.665091 28:0.700906 29:0.804383 30:1.0 31:0.997602 32:0.686812 33:0.246456 34:0.223953 35:0.352562 36:0.550605 37:0.691012 38:0.464698 39:0.248999 40:0.218083 41:-0.05663 42:-0.192918 43:-0.0184922 44:0.275444 45:0.243389 46:-0.340647 47:-0.591452 48:-0.00928422 49:-0.0580515 50:-0.454545 51:-0.573705 52:-0.392297 53:-0.236364 54:-0.573099 55:-0.764172 56:-0.902564 57:-0.693182 58:-0.775744 59:-0.856749 60:-0.930716 
-0.17669564031102747 1:-0.702065 2:-0.874839 3:-0.782523 4:-0.863053 5:-0.788486 6:-0.772104 7:-0.599567 8:-0.644101 9:-0.592477 10:-0.428857 11:-0.417553 12:-0.457503 13:-0.579387 14:-0.707951 15:-0.675193 16:-0.632607 17:-0.464304 18:-0.307221 19:-0.197349 20:-0.249786 21:-0.029511 22:0.284531 23:0.51616 24:0.69081 25:0.816393 26:0.760326 27:0.619498 28:0.33697 29:0.0600649 30:-0.0211995 31:0.126757 32:0.200854 33:0.00241521 34:-0.142978 35:-0.364427 36:-0.546169 37:-0.759458 38:-0.736924 39:-0.510226 40:-0.212854 41:-0.0487551 42:-0.0043956 43:-0.031941 44:-0.221592 45:-0.411715 46:-0.509051 47:-0.388265 48:-0.196765 49:-0.223624 50:-0.461818 51:-0.591633 52:-0.671897 53:-0.677922 54:-0.994152 55:-0.909297 56:-0.769231 57:-0.852273 58:-0.913043 59:-0.884298 60:-0.879908 
-0.5 1:-0.915929 2:-0.981997 3:-0.95138 4:-0.998573 5:-0.820949 6:-0.589895 7:-0.378247 8:-0.583682 9:-0.436991 10:-0.369369 11:-0.380973 12:-0.225088 13:-0.44091 14:-0.910282 15:-0.766677 16:-0.461429 17:-0.197596 18:0.019013 19:0.12834 20:0.176584 21:0.315556 22:0.565075 23:0.782558 24:0.964758 25:1.0 26:0.660756 27:0.171131 28:-0.433512 29:-1.0 30:-0.592415 31:-0.160109 32:0.0141541 33:0.035808 34:0.218654 35:0.0279227 36:-0.254637 37:-0.558714 38:-0.721951 39:-0.682269 40:-0.317429 41:-0.486972 42:-0.421978 43:-0.300142 44:-0.401443 45:-0.509809 46:-0.600384 47:-0.57443 48:-0.480084 49:-0.60424 50:-0.682424 51:-0.816733 52:-0.800285 53:-0.657143 54:-0.584795 55:-0.873016 56:-0.692308 57:-0.806818 58:-0.84897 59:-0.939394 60:-0.856813 
-0.49448662171279373 1:-0.820059 2:-0.750536 3:-0.93364 4:-0.988588 5:-0.911742 6:-0.918839 7:-0.866883 8:-0.966924 9:-0.877388 10:-0.782354 11:-0.770027 12:-0.751465 13:-0.738016 14:-0.845313 15:-0.885646 16:-0.848565 17:-0.800228 18:-0.504831 19:-0.333894 20:-0.0126284 21:0.116779 22:0.219098 23:0.125781 24:-0.098453 25:0.0622951 26:0.41998 27:0.808593 28:1.0 29:0.644278 30:0.0286567 31:-0.375041 32:-0.893732 33:-0.76415 34:-0.161208 35:0.299581 36:0.47379 37:0.664553 38:0.478632 39:0.354417 40:0.00130719 41:-0.537927 42:-0.597558 43:-0.294452 44:0.0347848 45:0.172875 46:-0.0482721 47:-0.00796813 48:0.0721773 49:-0.069157 50:-0.330909 51:-0.663347 52:-0.791726 53:-0.818182 54:-0.912281 55:-0.863946 56:-0.723077 57:-0.636364 58:-0.853547 59:-0.768595 60:-0.875289 
-0.5 1:-0.536873 2:-0.819974 3:-0.756242 4:-0.729434 5:-0.446614 6:-0.258264 7:0.0936147 8:-0.316428 9:-0.272323 10:-0.268125 11:-0.215369 12:-0.142732 13:-0.386786 14:-0.629989 15:-0.644297 16:-0.461429 17:-0.155735 18:0.157818 19:0.284873 20:0.110445 21:-0.151138 22:-0.0655352 23:0.0772491 24:0.0330909 25:0.408811 26:1.0 27:0.908394 28:0.195142 29:0.00811688 30:-0.278364 31:-1.0 32:-0.67468 33:-0.641079 34:-0.740541 35:-0.686202 36:-0.728226 37:-0.717253 38:-0.437247 39:-0.309087 40:-0.0579521 41:-0.189577 42:-0.32674 43:-0.679814 44:-0.754445 45:-0.658516 46:-0.773725 47:-0.776168 48:-0.915544 49:-0.890964 50:-0.699394 51:-0.792829 52:-0.751783 53:-0.241558 54:-0.71345 55:-0.959184 56:-0.748718 57:-0.926136 58:-0.82151 59:-0.713499 60:-0.685912 
-0.5 1:-0.731563 2:-0.667381 3:-0.757556 4:-0.991441 5:-0.90667 6:-0.716743 7:-0.613636 8:-0.76935 9:-0.620317 10:-0.547548 11:-0.590245 12:-0.345252 13:-0.148697 14:-0.376302 15:-0.452703 16:-0.614492 17:-0.83152 18:-0.686442 19:-0.390701 20:-0.300086 21:-0.205312 22:0.0630815 23:0.247218 24:0.431001 25:0.560041 26:0.555898 27:0.757748 28:0.913956 29:0.795049 30:0.324811 31:0.226376 32:0.140418 33:-0.0379082 34:-0.0961314 35:-0.554465 36:-0.732863 37:-0.689263 38:-0.717375 39:-0.376977 40:-0.149455 41:-0.38645 42:-0.50696 43:-0.68809 44:-0.934295 45:-0.915269 46:-0.810477 47:-0.717131 48:-0.534591 49:-0.627461 50:-0.861818 51:-0.818725 52:-0.640514 53:-0.522078 54:-0.812865 55:-0.764172 56:-0.651282 57:-0.784091 58:-0.80778 59:-0.746556 60:-0.778291 
-0.5 1:-0.789086 2:-0.800257 3:-0.911301 4:-0.792677 5:-0.532843 6:-0.288901 7:-0.22619 8:-0.486659 9:-0.519621 10:-0.482339 11:-0.412449 12:-0.272274 13:-0.175184 14:-0.440445 15:-0.559635 16:-0.677794 17:-0.56274 18:-0.433766 19:-0.352409 20:-0.223673 21:-0.208263 22:-0.281055 23:-0.14761 24:0.199672 25:0.430533 26:0.470206 27:0.728123 28:1.0 29:0.962459 30:0.40066 31:0.1697 32:-0.148955 33:-0.311351 34:-0.353259 35:-0.647949 36:-0.735081 37:-0.711568 38:-0.814495 39:-0.726966 40:-0.464706 41:-0.560394 42:-0.335531 43:-0.582827 44:-0.656016 45:-0.438158 46:-0.661547 47:-0.43716 48:-0.366876 49:-0.5053 50:-0.764848 51:-0.555777 52:-0.677603 53:-0.464935 54:-0.725146 55:-0.900227 56:-0.615385 57:-0.823864 58:-0.803204 59:-0.884298 60:-0.930716 
-0.5 1:-0.792035 2:-0.825118 3:-0.824573 4:-0.744175 5:-0.799645 6:-0.636119 7:-0.279221 8:-0.680265 9:-0.714793 10:-0.584156 11:-0.379838 12:-0.253517 13:-0.219231 14:-0.446633 15:-0.366436 16:-0.647873 17:-0.713812 18:-0.615377 19:-0.593309 20:-0.466396 21:-0.243255 22:-0.266128 23:-0.0816997 24:0.240242 25:0.491598 26:0.556119 27:0.754176 28:0.982503 29:0.84233 30:0.35677 31:0.239237 32:0.0480791 33:-0.276699 34:-0.297933 35:-0.599059 36:-0.765121 37:-0.728625 38:-0.741499 39:-0.581489 40:-0.484532 41:-0.518935 42:-0.350672 43:-0.69378 44:-0.701881 45:-0.588001 46:-0.483544 47:-0.292285 48:-0.106319 49:-0.484099 50:-0.624242 51:-0.623506 52:-0.594864 53:-0.714286 54:-0.578947 55:-0.614512 56:-0.825641 57:-0.698864 58:-0.757437 59:-0.741047 60:-0.916859 
-0.5 1:-0.557522 2:-0.789113 3:-0.900131 4:-0.79981 5:-0.576465 6:-0.486697 7:-0.463745 8:-0.491069 9:-0.654672 10:-0.59388 11:-0.47852 12:-0.325909 13:-0.279689 14:-0.478189 15:-0.627846 16:-0.730714 17:-0.624702 18:-0.575688 19:-0.475068 20:-0.4253 21:-0.309865 22:-0.235865 23:-0.0104906 24:0.367483 25:0.563115 26:0.63366 27:0.831705 28:1.0 29:0.795049 30:0.244913 31:0.19564 32:-0.112334 33:-0.470755 34:-0.558665 35:-0.663905 36:-0.830242 37:-0.676799 38:-0.717168 39:-0.561248 40:-0.501089 41:-0.500174 42:-0.236142 43:-0.564205 44:-0.826076 45:-0.662781 46:-0.497257 47:-0.319812 48:-0.332734 49:-0.687027 50:-0.653333 51:-0.7251 52:-0.714693 53:-0.703896 54:-0.80117 55:-0.70068 56:-0.984615 57:-0.710227 58:-0.853547 59:-1.0 60:-0.773672 
-0.5 1:-0.939528 2:-0.776254 3:-0.864652 4:-0.760818 5:-0.559219 6:-0.438861 7:-0.635823 8:-0.585006 9:-0.526729 10:-0.500644 11:-0.378421 12:-0.274326 13:-0.208291 14:-0.512427 15:-0.62905 16:-0.746998 17:-0.652057 18:-0.534961 19:-0.519461 20:-0.424229 21:-0.30059 22:-0.226255 23:-0.0354986 24:0.356623 25:0.485656 26:0.524838 27:0.794306 28:1.0 29:0.774351 30:0.256632 31:0.220926 32:-0.0880701 33:-0.481046 34:-0.678431 35:-0.741229 36:-0.854637 37:-0.6897 38:-0.792243 39:-0.571368 40:-0.579739 41:-0.627099 42:-0.335287 43:-0.643864 44:-0.823499 45:-0.811203 46:-0.543335 47:-0.345527 48:-0.254268 49:-0.479051 50:-0.893333 51:-0.631474 52:-0.817404 53:-0.74026 54:-0.625731 55:-0.718821 56:-0.589744 57:-0.806818 58:-0.90389 59:-0.818182 60:-0.995381 
-0.5 1:-0.722714 2:-0.901414 3:-0.760184 4:-0.966714 5:-0.761603 6:-0.585058 7:-0.465368 8:-0.648512 9:-0.685769 10:-0.532676 11:-0.45867 12:-0.271688 13:-0.446956 14:-0.700113 15:-0.596951 16:-0.669448 17:-0.799192 18:-0.608312 19:-0.607827 20:-0.475385 21:-0.28457 22:-0.302321 23:-0.100138 24:0.289212 25:0.551639 26:0.646437 27:0.827713 28:0.95245 29:0.784294 30:0.365505 31:0.311826 32:0.0480791 33:-0.280479 34:-0.407101 35:-0.725478 36:-0.81754 37:-0.59567 38:-0.613185 39:-0.50137 40:-0.556645 41:-0.518703 42:-0.243468 43:-0.45377 44:-0.744653 45:-0.831106 46:-0.46791 47:-0.298443 48:-0.351902 49:-0.660777 50:-0.570909 51:-0.583665 52:-0.640514 53:-0.537662 54:-0.783626 55:-0.823129 56:-0.805128 57:-0.857955 58:-0.84897 59:-0.933884 60:-0.953811 
-0.5 1:-0.638643 2:-0.693956 3:-0.920499 4:-0.898241 5:-0.925437 6:-0.873152 7:-0.66342 8:-0.406836 9:-0.476381 10:-0.359073 11:-0.310648 12:-0.353458 13:-0.573629 14:-0.987006 15:-0.74501 16:-0.685325 17:-0.621179 18:-0.418182 19:-0.322533 20:-0.166096 21:0.0935919 22:0.467744 23:0.589276 24:0.761705 25:0.883607 26:1.0 27:0.868684 28:0.506587 29:0.416193 30:0.650154 31:0.556403 32:-0.0647046 33:-0.739998 34:-0.716587 35:-0.709931 36:-0.639315 37:-0.496173 38:-0.723406 39:-0.876028 40:-0.85817 41:-0.887203 42:-0.506716 43:-0.352127 44:-0.520227 45:-0.590844 46:-0.596818 47:-0.641072 48:-0.975442 49:-0.844523 50:-0.718788 51:-0.639442 52:-0.606277 53:-0.355844 54:-0.783626 55:-0.85034 56:-0.707692 57:-0.789773 58:-0.84897 59:-0.669421 60:-0.496536 
