svm_type c_svc
kernel_type rbf
gamma 0.016666666666666666
nr_class 2
total_sv 85
rho -0.39522238075733185
label 1 -1
nr_sv 43 42
SV
0.5 1:-0.727139 2:-0.687098 3:-0.728647 4:-0.929149 5:-0.550089 6:-0.524859 7:-0.185065 8:-0.318192 9:-0.101436 10:-0.428571 11:-0.625691 12:-0.60551 13:-0.408666 14:-0.923275 15:-0.873809 16:-0.570324 17:-0.429904 18:-0.454753 19:-0.0355565 20:-0.113656 21:0.111088 22:-0.00787241 23:-0.202077 24:0.0882082 25:0.326025 26:0.210265 27:0.391533 28:0.604776 29:0.348823 30:-0.308831 31:-0.820163 32:-0.505729 33:-0.0246771 34:0.554849 35:0.700726 36:0.698992 37:0.386617 38:0.188312 39:-0.0360531 40:-0.427669 41:-0.965258 42:-0.321612 43:-0.269365 44:0.0966246 45:-0.249076 46:-0.619857 47:-0.619341 48:-0.195568 49:-0.613327 50:-0.214545 51:-0.537849 52:-0.945792 53:-0.688312 54:-0.128655 55:-0.70068 56:-0.164103 57:0.00568182 58:-0.629291 59:-0.509642 60:-0.879908 
0.5 1:-0.353982 2:-0.556794 3:-0.455979 4:-0.699952 5:-0.433934 6:0.333512 7:0.14881 8:0.510915 9:-0.0339109 10:-0.210925 11:0.312633 12:0.851114 13:0.938966 14:0.55182 15:0.491223 16:0.889273 17:1.0 18:0.766026 19:0.584263 20:0.532962 21:-0.00927487 22:-0.216236 23:-0.280704 24:-0.247003 25:-0.383197 26:-0.497962 27:-0.413804 28:-0.488884 29:-0.131696 30:-0.698519 31:-0.279346 32:-0.428668 33:-0.683503 34:-0.548702 35:-0.77846 36:-0.172984 37:-0.238137 38:-0.859832 39:-0.69028 40:-0.596296 41:-0.695657 42:-0.871306 43:-0.637657 44:-0.58052 45:-0.823429 46:-0.944323 47:-0.808041 48:-0.555556 49:-0.587077 50:-0.852121 51:-0.750996 52:-0.783167 53:-0.563636 54:-0.777778 55:-0.600907 56:-0.0410256 57:-0.221591 58:-0.789474 59:-0.719008 60:-0.82448 
0.5 1:-0.635693 2:-0.506215 3:-0.287779 4:-0.512601 5:-0.539944 6:0.170653 7:0.297619 8:0.638809 9:0.635717 10:0.739168 11:0.713881 12:1.0 13:0.543112 14:0.0409405 15:0.29361 16:0.377773 17:0.32836 18:0.491117 19:0.774669 20:0.704409 21:0.572934 22:0.332788 23:-0.209495 24:-0.301506 25:0.0432377 26:-0.671329 27:-0.0358231 28:0.698024 29:0.195617 30:0.683392 31:0.750409 32:0.042687 33:-0.709125 34:-0.470694 35:-0.179912 36:-0.402621 37:0.26066 38:0.325361 39:0.0550285 40:0.00261438 41:-0.00706427 42:-0.381929 43:-0.449373 44:-0.427467 45:-0.399773 46:-0.951728 47:-0.511771 48:-0.554358 49:-0.868753 50:-0.74303 51:-0.934263 52:-0.360913 53:-0.163636 54:-0.502924 55:-0.210884 56:0.230769 57:0.778409 58:-0.263158 59:-0.482094 60:-0.667436 
0.5 1:0.10177 2:-0.434205 3:-0.693824 4:-0.840228 5:-0.73472 6:-0.705993 7:-0.363636 8:0.0637266 9:0.0333185 10:0.242957 11:0.0954204 12:0.0890973 13:0.172305 14:-0.203465 15:-0.0978032 16:0.0510889 17:0.441716 18:0.208935 19:-0.676415 20:-0.148116 21:-0.233558 22:-0.167161 23:0.0950514 24:0.0572687 25:-0.401434 26:-0.699526 27:0.368631 28:1.0 29:0.444399 30:-0.124108 31:0.00730245 32:0.1357 33:-0.495117 34:-0.83699 35:-0.646517 36:-0.173185 37:-0.0699759 38:-0.410627 39:-0.481973 40:-0.496078 41:-0.625014 42:-0.41685 43:-0.522307 44:-0.783303 45:-0.803241 46:-0.855184 47:-0.870699 48:-0.949087 49:-0.767794 50:-0.888485 51:-0.689243 52:-0.934379 53:-0.745455 54:-0.444444 55:-0.528345 56:-0.94359 57:-0.607955 58:-0.79405 59:-0.415978 60:-0.593533 
0.5 1:-0.600295 2:-0.616802 3:-0.827858 4:-0.944841 5:-0.839209 6:-0.522709 7:-0.367965 8:-0.215877 9:-0.398786 10:-0.163163 11:-0.234652 12:0.176436 13:0.773139 14:0.634526 15:1.0 16:1.0 17:0.898042 18:0.797403 19:0.418052 20:-0.0440925 21:-0.670742 22:-0.229936 23:0.12896 24:-0.460506 25:-0.630533 26:0.0708228 27:0.0312008 28:-0.286538 29:-0.337054 30:-0.051028 31:0.111281 32:-0.0172995 33:-0.40733 34:-0.579014 35:-0.757799 36:-0.440323 37:-0.24426 38:-0.214932 39:-0.223487 40:-0.307407 41:-0.456398 42:-0.366545 43:-0.813009 44:-0.68101 45:-0.661075 46:-0.701317 47:-0.774357 48:-0.704103 49:-0.733468 50:-0.803636 51:-0.792829 52:-0.894437 53:-0.953247 54:-0.836257 55:-0.968254 56:-0.564103 57:-0.693182 58:-0.89016 59:-0.724518 60:-0.741339 
0.5 1:-0.554572 2:-0.185598 3:-0.141919 4:-0.35806 5:-0.184885 6:-0.135716 7:-0.622294 8:-0.406395 9:-0.405301 10:-0.027599 11:-0.5755 12:-0.876319 13:-0.905283 14:-0.282458 15:0.0809509 16:0.0742927 17:-0.00507719 18:-0.192312 19:-0.678098 20:-0.234375 21:0.520025 22:0.945813 23:0.870722 24:0.0900522 25:0.0303279 26:0.300804 27:0.0992751 28:0.0590778 29:-0.587459 30:-0.672739 31:0.161635 32:0.329814 33:-0.477476 34:-0.647907 35:-0.438273 36:0.0247984 37:0.268751 38:-0.188936 39:0.0769555 40:0.310675 41:0.0786335 42:-0.433211 43:-0.493857 44:-0.549343 45:-0.629229 46:-0.836259 47:-0.592901 48:-0.372866 49:-0.488137 50:-0.614545 51:-0.611554 52:-0.449358 53:0.262338 54:-0.292398 55:-0.709751 56:-0.312821 57:-0.494318 58:-0.359268 59:-0.807163 60:-0.551963 
0.5 1:-0.256637 2:-0.535362 3:-0.456636 4:-0.875892 5:-0.446614 6:-0.559258 7:-0.462121 8:-0.753914 9:-0.588331 10:-0.220649 11:-0.287395 12:-0.164713 13:-0.288038 14:-0.272352 15:0.12248 16:-0.142276 17:-0.529997 18:-0.828779 19:0.300652 20:0.872003 21:0.543002 22:0.0495859 23:0.323726 24:0.830755 25:0.510861 26:0.607886 27:0.763 28:0.195348 29:-0.427151 30:-0.8956 31:-0.817766 32:-0.950573 33:-0.892261 34:-0.19576 35:-0.295694 36:-0.804435 37:-0.657993 38:-0.262348 39:-0.174151 40:-0.470806 41:-0.816792 42:-0.477411 43:-0.514031 44:-0.629735 45:-0.389821 46:-0.352715 47:-0.592539 48:-0.847859 49:-0.712267 50:-0.568485 51:-0.896414 52:-0.791726 53:-0.402597 54:-0.795322 55:-0.478458 56:-0.523077 57:-0.534091 58:-0.798627 59:-0.741047 60:-0.78291 
0.5 1:-0.693215 2:-0.683669 3:-0.691853 4:-0.801712 5:-0.705808 6:-0.737167 7:-0.61039 8:-0.981036 9:-0.819636 10:-0.607036 11:-0.754147 12:-0.584408 13:0.0505254 14:-0.314221 15:-0.662554 16:-0.80175 17:-1.0 18:-0.289143 19:0.453187 20:0.983947 21:0.958263 22:0.773029 23:0.303168 24:-0.170782 25:-0.357787 26:0.41976 27:0.918269 28:0.455126 29:-0.0438312 30:-0.790988 31:-0.449591 32:-0.170523 33:-0.434422 34:-0.344356 35:-0.348471 36:-0.575403 37:-0.538159 38:-0.512738 39:-0.724014 40:-0.417211 41:-0.490909 42:-0.588767 43:-0.451442 44:-0.716826 45:-0.719932 46:-0.651399 47:-0.471568 48:-0.302785 49:-0.215548 50:0.0642424 51:-0.878486 52:-0.60913 53:-0.361039 54:-0.210526 55:-0.764172 56:-0.769231 57:-0.647727 58:-0.588101 59:-0.680441 60:-0.926097 
0.5 1:-0.840708 2:-0.740249 3:-0.898817 4:-0.878745 5:-0.852397 6:-1.0 7:-0.919372 8:-0.768908 9:-0.689916 10:-0.793508 11:-0.926556 12:-0.820926 13:-0.469699 14:-0.528926 15:-0.631056 16:-0.619377 17:-0.769143 18:-0.485922 19:0.121397 20:0.513699 21:0.547218 22:0.69635 23:0.00646392 24:-0.300482 25:0.174795 26:0.620002 27:1.0 28:0.726842 29:0.249391 30:-0.152445 31:-0.246213 32:-0.51202 33:-0.508558 34:-0.485109 35:-0.481641 36:-0.472177 37:-0.203368 38:-0.128002 39:-0.247523 40:-0.476035 41:-0.670643 42:-0.683028 43:-0.866546 44:-0.913167 45:-0.745806 46:-0.763851 47:-0.684172 48:-0.733453 49:-0.864715 50:-0.473939 51:-0.625498 52:-0.643367 53:0.350649 54:0.251462 55:-0.69161 56:-0.415385 57:-0.869318 58:-0.592677 59:-0.955923 60:-0.82448 
0.5 1:-0.905605 2:-0.931419 3:-0.973719 4:-0.908702 5:-0.859498 6:-0.761354 7:-0.732143 8:-0.601764 9:-0.723382 10:-0.677678 11:-0.770878 12:-0.713072 13:-0.513459 14:-0.358565 15:-0.358812 16:-0.47873 17:-0.255207 18:0.258597 19:0.425836 20:0.715967 21:0.931282 22:0.968715 23:0.889795 24:0.597582 25:0.351025 26:-0.0714836 27:-0.451833 28:-0.887196 29:-0.213677 30:-0.631192 31:-0.689809 32:-0.8133 33:-0.739578 34:-0.546582 35:-0.536463 36:-0.280444 37:-0.337197 38:-0.749194 39:-0.869703 40:-0.788235 41:-0.841807 42:-0.808791 43:-0.640243 44:-0.788972 45:-0.807222 46:-0.818157 47:-0.56465 48:-0.585505 49:-0.846542 50:-0.355152 51:-0.653386 52:-0.520685 53:-0.366234 54:-0.54386 55:-0.582766 56:-0.923077 57:-0.681818 58:-0.748284 59:-0.680441 60:-0.879908 
0.5 1:-0.839233 2:-0.633948 3:-0.613009 4:-0.814075 5:-0.731169 6:-0.864015 7:-0.730519 8:-0.872988 9:-0.710647 10:-0.425997 11:-0.616901 12:-0.512016 13:-0.181805 14:-0.639889 15:-0.887451 16:-0.546509 17:-0.314475 18:-0.286442 19:0.143488 20:0.207834 21:0.114882 22:-0.109498 23:-0.176433 24:-0.292695 25:0.271721 26:0.766494 27:0.785272 28:-0.0333471 29:-0.352881 30:-0.629914 31:-0.76654 32:-0.267131 33:-0.188701 34:-0.391627 35:-0.427023 36:-0.187702 37:0.126175 38:-0.220963 39:0.0811723 40:0.067756 41:-0.357962 42:-0.329426 43:-0.391957 44:-0.407885 45:-0.671595 46:-0.801426 47:-0.775081 48:-0.809524 49:-0.545684 50:-0.595152 51:-0.844622 52:-0.78602 53:-0.72987 54:-0.0409357 55:-0.174603 56:-0.74359 57:-0.369318 58:-0.116705 59:-0.195592 60:-0.741339 
0.5 1:-0.738938 2:-0.484784 3:-0.761498 4:-0.659534 5:-0.329952 6:-0.619995 7:-0.710498 8:-0.927674 9:-0.71509 10:-0.693122 11:-0.731178 12:-0.599941 13:-0.0395854 14:-0.132515 15:-0.250075 16:0.13963 17:0.259351 18:0.332987 19:0.401851 20:0.0295377 21:0.0301433 22:0.256109 23:0.544135 24:0.540211 25:0.135246 26:-0.131843 27:-0.222607 28:-0.552697 29:-0.883929 30:-1.0 31:-0.70921 32:-0.08133 33:0.154888 34:-0.242607 35:-0.535236 36:0.147379 37:0.858955 38:0.669128 39:-0.325532 40:-0.342919 41:0.328547 42:0.543834 43:-0.299366 44:-0.634373 45:-0.64174 46:-0.646736 47:-0.713872 48:-0.503444 49:-0.475013 50:-0.476364 51:-0.282869 52:-0.0784593 53:-0.345455 54:-0.356725 55:-0.537415 56:-0.897436 57:-0.761364 58:-0.844394 59:-0.38843 60:-0.681293 
0.5 1:-0.836283 2:-0.877411 3:-0.588699 4:-0.203994 5:0.267056 6:0.320613 7:0.57684 8:0.788313 9:0.453576 10:0.660804 11:0.571813 12:0.51905 13:0.522384 14:0.039703 15:-0.00692146 16:0.388765 17:0.646047 18:0.550961 19:0.624448 20:0.863656 21:1.0 22:0.841325 23:0.542015 24:0.0718164 25:-0.114344 26:0.101663 27:0.043597 28:-0.241046 29:-0.850244 30:-0.622457 31:-0.668011 32:-0.958886 33:-0.565893 34:-0.619078 35:-0.978316 36:-0.704234 37:-0.811721 38:-0.570968 39:-0.409656 40:-0.329412 41:-0.376723 42:-0.809524 43:-0.672572 44:-0.644164 45:-0.676997 46:-0.858475 47:-0.97356 48:-0.833483 49:-0.624432 50:-0.706667 51:-0.695219 52:-0.760342 53:-0.844156 54:-0.48538 55:-0.478458 56:-0.989744 57:0.0113636 58:-0.583524 59:-0.366391 60:-0.736721 
0.5 1:-0.324484 2:-0.568796 3:-0.471748 4:-0.43224 5:-0.129597 6:0.59527 7:0.609848 8:0.0174201 9:0.112098 10:0.042757 11:-0.225294 12:-0.216589 13:-0.390528 14:-0.765288 15:-0.688835 16:-0.538368 17:-0.145166 18:0.161351 19:0.314959 20:0.565283 21:0.645658 22:0.552806 23:0.708806 24:0.460916 25:-0.204508 26:-0.631017 27:-0.388381 28:-0.278716 29:-0.118506 30:0.207628 31:0.518692 32:0.555605 33:0.517799 34:0.623317 35:0.191572 36:0.165323 37:0.319484 38:0.434127 39:0.247101 40:0.13268 41:-0.140938 42:-0.576313 43:-0.579723 44:-0.348879 45:-0.458914 46:-0.549369 47:-0.781239 48:-0.874813 49:-0.559818 50:-0.575758 51:-0.786853 52:-0.472183 53:-0.412987 54:-0.684211 55:-0.836735 56:-0.74359 57:-0.738636 58:-0.638444 59:-0.85124 60:-0.903002 
0.5 1:-0.0427729 2:-0.512216 3:-0.456636 4:-0.850689 5:-0.801674 6:-0.640419 7:-0.600649 8:-0.52591 9:-0.325337 10:-0.50665 11:-0.268396 12:0.140973 13:-0.00302289 14:-0.647107 15:-0.436453 16:-0.210869 17:0.137291 18:0.333403 19:0.17652 20:-0.100599 21:-0.423693 22:-0.633166 23:-0.678076 24:-0.703514 25:-0.540164 26:-0.600176 27:-0.474104 28:-0.100247 29:0.389205 30:0.461809 31:0.62921 32:0.702314 33:0.310091 34:0.426603 35:0.476322 36:0.630847 37:0.872075 38:1.0 39:0.767236 40:0.512854 41:0.492299 42:0.426618 43:0.194362 44:-0.0623551 45:-0.575775 46:-0.666484 47:-0.526983 48:-0.28242 49:-0.416456 50:-0.430303 51:-0.731076 52:-0.620542 53:-0.038961 54:-0.807018 55:-0.863946 56:-0.887179 57:-0.880682 58:-0.272311 59:-0.404959 60:-0.662818 
0.5 1:-0.876106 2:-0.590227 3:-0.813403 4:-0.886353 5:-0.703272 6:-0.475947 7:0.260823 8:0.0275634 9:-1.0 10:-0.494065 11:-0.669077 12:-0.514654 13:-0.138621 14:-0.779932 15:-0.57107 16:-0.532668 17:-0.535799 18:-0.499013 19:-0.62045 20:-1.0 21:-0.804174 22:-0.803701 23:-0.765815 24:-0.683639 25:-0.541803 26:-0.636744 27:-0.883391 28:0.044051 29:0.416396 30:0.209758 31:-0.0683379 32:0.260616 33:0.41363 34:0.276524 35:0.125499 36:0.500605 37:0.82834 38:0.844442 39:0.968796 40:1.0 41:1.0 42:0.918193 43:0.448338 44:-0.268745 45:0.253057 46:0.510422 47:0.568635 48:0.740042 49:1.0 50:0.888485 51:-0.211155 52:-0.529244 53:-0.251948 54:-0.385965 55:-0.111111 56:-0.307692 57:-0.852273 58:-0.281465 59:-0.421488 60:-0.408776 
0.5 1:-0.79941 2:-0.730819 3:-0.616294 4:-0.528293 5:-0.444078 6:-0.122816 7:-0.109307 8:-0.530761 9:-0.758922 10:-0.687688 11:-0.841769 12:-0.624267 13:-0.389377 14:-0.480252 15:-0.323302 16:-0.111541 17:0.367941 18:0.752104 19:0.822007 20:0.473887 21:0.311973 22:0.41642 23:0.647134 24:0.528942 25:0.383811 26:0.238462 27:-0.0421263 28:-0.0444627 29:-0.0162338 30:-0.244061 31:-0.749537 32:-1.0 33:-0.966397 34:-0.417064 35:-0.307354 36:-0.639919 37:-0.972666 38:-0.768327 39:-0.571157 40:-0.594118 41:-0.348002 42:-0.432723 43:-0.556188 44:-0.598299 45:-0.557577 46:-0.884257 47:-0.821442 48:-0.714885 49:-0.7789 50:-0.85697 51:-0.828685 52:-0.848787 53:-0.948052 54:-0.567251 55:-0.446712 56:-0.74359 57:-0.954545 58:-0.926773 59:-0.878788 60:-0.741339 
0.5 1:-0.874631 2:-0.769396 3:-0.88502 4:-0.851165 5:-0.822977 6:-0.946788 7:-0.847944 8:-0.737155 9:-0.460684 10:-0.269269 11:-0.124628 12:-0.107268 13:-0.352814 14:-0.794782 15:-0.749824 16:-0.129045 17:0.33582 18:0.387221 19:0.57206 20:0.871789 21:0.969857 22:0.630508 23:0.107555 24:0.261141 25:0.394057 26:0.311598 27:-0.243618 28:-0.685673 29:-0.61039 30:-0.296048 31:-0.278692 32:-0.631993 33:-0.632469 34:-0.336725 35:-0.230643 36:0.00745968 37:0.133392 38:-0.382552 39:-0.504111 40:-0.529194 41:-0.609959 42:-0.528694 43:-0.784042 44:-0.76604 45:-0.60762 46:-0.465716 47:-0.561391 48:-0.495058 49:-0.405351 50:-0.401212 51:-0.76494 52:-0.771755 53:-0.485714 54:-0.847953 55:-0.628118 56:-0.779487 57:-0.352273 58:-0.922197 59:-0.504132 60:-0.759815 
0.5 1:-0.743363 2:-0.741106 3:-0.88042 4:-0.731812 5:-0.993406 6:-0.630744 7:-0.238636 8:-0.384344 9:-0.492374 10:-0.311025 11:-0.342691 12:0.0181712 13:0.0715417 14:-0.505208 15:-0.46133 16:-0.181559 17:0.375816 18:0.113351 19:-0.635599 20:-0.577269 21:0.467327 22:0.440344 23:-0.400233 24:-0.470341 25:0.191189 26:0.096156 27:-0.057464 28:0.715109 29:0.662946 30:-0.260467 31:-0.610681 32:-0.698719 33:-0.993699 34:-0.70832 35:-0.42375 36:-0.740121 37:-0.725782 38:-0.651035 39:-0.923466 40:-0.981481 41:-0.703995 42:-0.627106 43:-0.526704 44:-0.514043 45:-0.713392 46:-0.818157 47:-0.93372 48:-0.758011 49:-0.890964 50:-0.653333 51:-0.818725 52:-0.914408 53:-0.527273 54:-0.22807 55:-0.165533 56:-0.302564 57:-0.454545 58:-0.592677 59:-0.719008 60:-0.681293 
0.5 1:-0.734513 2:-0.822546 3:-0.971748 4:-0.937233 5:-0.872179 6:-0.747917 7:-0.474567 8:-0.729658 9:-0.817563 10:-0.963106 11:-0.875514 12:-0.881887 13:-0.188715 14:-0.261421 15:-0.0498545 16:-0.0962752 17:-0.414361 18:-0.213506 19:0.248475 20:1.0 21:0.711425 22:0.020959 23:-0.450461 24:0.170577 25:0.535246 26:0.128098 27:-0.181847 28:0.0710169 29:-0.0714286 30:0.197827 31:-0.265613 32:-0.733543 33:-0.282999 34:0.0772655 35:-0.328833 36:-0.112903 37:-0.19309 38:-0.0333784 39:0.286949 40:0.171242 41:-0.26161 42:-0.518437 43:-0.513255 44:-0.782273 45:-0.626102 46:-0.563906 47:-0.796451 48:-0.630428 49:-0.65371 50:-0.10303 51:-0.48008 52:-0.574893 53:-0.641558 54:0.526316 55:-0.106576 56:-0.564103 57:-0.477273 58:-0.578947 59:-0.889807 60:-0.78291 
0.5 1:-0.370206 2:-0.596228 3:-0.977661 4:-0.751308 5:-0.892975 6:-0.690406 7:-0.117424 8:-0.367144 9:-0.733748 10:-0.66967 11:-0.767475 12:-0.373095 13:-0.475169 14:-0.614932 15:-0.78373 16:-0.618563 17:-0.560875 18:0.310545 19:0.651799 20:0.625856 21:0.581998 22:0.791841 23:0.928791 24:0.695728 25:0.308607 26:-0.48893 27:-0.669503 28:0.108481 29:0.132711 30:-0.0915095 31:0.536785 32:0.616715 33:-0.011236 34:-0.171595 35:0.0917459 36:0.106653 37:-0.784605 38:-0.282936 39:-0.106051 40:-0.0821351 41:-0.491372 42:-0.655678 43:-0.0976335 44:-0.314867 45:-0.731589 46:-0.624246 47:-0.51322 48:-0.750824 49:-0.274104 50:0.544242 51:-0.581673 52:-0.440799 53:0.0961039 54:-0.269006 55:-0.777778 56:-0.646154 57:-0.5625 58:-0.533181 59:-0.680441 60:-0.542725 
0.5 1:-0.563422 2:-0.584226 3:-0.555191 4:-0.63243 5:-0.993913 6:-0.947326 7:-0.487013 8:-0.576185 9:-0.422479 10:-0.812956 11:-0.580888 12:-0.32034 13:-0.243414 14:-0.494895 15:-0.358812 16:-0.328109 17:0.0456947 18:0.565922 19:0.803072 20:0.721961 21:0.509275 22:-0.440139 23:-0.240225 24:0.189222 25:-0.397951 26:-0.435841 27:0.192772 28:0.598394 29:0.246956 30:-0.0655161 31:0.165777 32:0.405527 33:-0.234065 34:-0.777848 35:-0.536872 36:-0.0733871 37:0.100153 38:-0.424561 39:-0.62724 40:-0.622876 41:-0.694499 42:-0.445177 43:-0.737489 44:-0.816284 45:-0.825135 46:-0.786341 47:-0.724375 48:-0.49386 49:-0.402322 50:-0.835152 51:-0.822709 52:-0.774608 53:-0.85974 54:-0.298246 55:-0.174603 56:-0.502564 57:0.284091 58:-0.180778 59:-0.752066 60:-0.852194 
0.5 1:-0.718289 2:-0.891985 3:-0.659658 4:-0.757014 5:-0.705808 6:-0.285138 7:-0.290584 8:-0.124146 9:-0.556938 10:-0.58244 11:-0.42209 12:-0.546014 13:-0.619116 14:-0.661132 15:-0.592737 16:-0.563403 17:-0.583256 18:-0.808 19:-0.301915 20:0.113442 21:-0.159992 22:-0.0477456 23:1.0 24:0.728511 25:-0.082377 26:-0.0263245 27:0.200966 28:0.411898 29:0.108157 30:-0.336316 31:-0.564251 32:-0.659178 33:-0.809094 34:-0.340117 35:-0.455866 36:-0.365323 37:-0.50667 38:-0.655402 39:-0.573055 40:-0.738126 41:-0.925188 42:-0.932112 43:-0.81482 44:-0.748518 45:-0.77623 46:-0.856829 47:-0.818906 48:-0.861635 49:-0.77688 50:-0.650909 51:-0.388446 52:0.0784593 53:-0.262338 54:-0.953216 55:-0.573696 56:-0.528205 57:-0.579545 58:-0.189931 59:-0.404959 60:-0.704388 
0.5 1:-0.643068 2:-0.621946 3:-0.754928 4:-0.913932 5:-0.366979 6:-0.343725 7:-0.147727 8:-0.07828 9:-0.771361 10:-0.871872 11:-0.829292 12:-0.816823 13:-0.612207 14:-0.741982 15:-0.635269 16:-0.448606 17:-0.655994 18:-0.506909 19:-0.0483905 20:-0.675514 21:-0.0586003 22:0.0317963 23:-0.346402 24:0.132876 25:0.00840164 26:0.0560634 27:-0.259376 28:-0.307122 29:0.327313 30:0.714286 31:0.650136 32:-0.173669 33:-0.390528 34:0.0344462 35:0.340493 36:0.458266 37:0.248852 38:0.384423 39:0.787476 40:0.930719 41:0.71187 42:0.756044 43:1.0 44:1.0 45:0.708558 46:0.238069 47:0.121333 48:0.113507 49:-0.0348309 50:-0.500606 51:-0.589641 52:-0.74893 53:-0.231169 54:-0.497076 55:-0.433107 56:-0.00512821 57:-0.875 58:-0.102975 59:0.399449 60:-0.196305 
0.5 1:-0.420354 2:-0.445349 3:-0.749014 4:-0.740371 5:-0.782399 6:-0.0782048 7:-0.380411 8:-0.572657 9:-0.849548 10:-0.409981 11:-0.384659 12:-0.0926143 13:-0.164244 14:-0.517377 15:-0.357809 16:-0.27356 17:-0.201326 18:0.0366753 19:0.381864 20:0.61387 21:0.754427 22:0.652183 23:0.493271 24:0.509272 25:0.665369 26:0.758784 27:0.506671 28:0.155414 29:-0.412946 30:-0.955257 31:-0.497548 32:0.536059 33:0.586685 34:0.661473 35:0.524599 36:0.489516 37:0.290619 38:-0.719871 39:-0.46342 40:0.064488 41:0.125651 42:0.164347 43:0.0355619 44:-0.00103066 45:-0.530566 46:-0.878771 47:-0.75987 48:-0.749626 49:-0.520444 50:-0.430303 51:-0.868526 52:-0.845934 53:-0.355844 54:0.0175439 55:-0.714286 56:-0.00512821 57:0.113636 58:-0.546911 59:-0.619835 60:-0.773672 
0.5 1:-0.567847 2:-0.714531 3:-0.877135 4:-0.60485 5:-0.237636 6:-0.114217 7:-0.520022 8:-0.427563 9:-0.550422 10:-0.232947 11:-0.135971 12:-0.207503 13:-0.590039 14:-0.368464 15:-0.00611897 16:0.451862 17:0.450834 18:0.636987 19:0.746055 20:0.926584 21:1.0 22:0.73561 23:0.252093 24:0.17488 25:0.634836 26:0.505452 27:0.182897 28:-0.194936 29:-0.422484 30:-0.842122 31:-0.573624 32:0.17277 33:0.0664707 34:0.431055 35:0.447274 36:0.399597 37:0.118959 38:-0.784132 39:-0.0792747 40:0.371024 41:-0.0700637 42:-0.237607 43:-0.385232 44:-0.276475 45:-0.609326 46:-0.688426 47:-0.625498 48:-0.587901 49:-0.573953 50:-0.716364 51:-0.860558 52:-0.546362 53:-0.366234 54:-0.251462 55:-0.619048 56:-0.758974 57:-0.852273 58:-0.455378 59:-0.69697 60:-0.935335 
0.012370066982004657 1:-0.741888 2:-0.972568 3:-0.588042 4:-0.812649 5:-0.865077 6:-0.683956 7:-0.530303 8:-0.383021 9:-0.80305 10:-0.932504 11:-0.668226 12:-0.0512896 13:-0.132575 14:-0.474064 15:-0.972916 16:-0.916548 17:-0.623873 18:-0.129766 19:-0.300442 20:0.0639983 21:0.258853 22:0.434618 23:0.627424 24:0.747157 25:1.0 26:0.687631 27:0.277865 28:-0.0113215 29:-0.0517451 30:-0.165442 31:-0.119564 32:-0.072568 33:0.0307676 34:0.0802332 35:0.0500153 36:0.0465726 37:-0.1452 38:-0.573048 39:-0.824162 40:-0.1878 41:-0.132137 42:0.223687 43:0.0903918 44:-0.361247 45:-0.549047 46:-0.691717 47:-0.764216 48:-0.527403 49:-0.671883 50:-0.830303 51:-0.948207 52:-0.757489 53:-0.412987 54:-0.403509 55:-0.600907 56:-0.302564 57:-0.607955 58:-0.913043 59:-0.702479 60:-0.464203 
0.5 1:-0.724189 2:-0.915988 3:-0.796321 4:-0.913932 5:-0.624651 6:-0.233002 7:-0.393398 8:-0.756119 9:-0.632163 10:-0.640498 11:-0.842904 12:-0.990328 13:-0.691953 14:-0.428071 15:0.114054 16:0.589864 17:0.656201 18:0.59626 19:0.708815 20:0.736515 21:0.876265 22:0.877927 23:0.874748 24:1.0 25:0.943648 26:0.847781 27:0.863641 28:0.447715 29:-0.132102 30:-0.439438 31:-0.198038 32:-0.0548191 33:-0.253597 34:-0.409009 35:-0.5426 36:-0.744355 37:-0.521102 38:-0.610689 39:-0.741303 40:-0.701961 41:-0.887666 42:-0.874725 43:-0.77887 44:-0.674826 45:-0.672164 46:-0.843664 47:-0.845708 48:-0.745433 49:-0.762746 50:-0.985455 51:-0.625498 52:-0.660485 53:-0.605195 54:-0.666667 55:-0.8322 56:-0.687179 57:-0.738636 58:-0.76659 59:-0.603306 60:-0.778291 
0.5 1:-0.669617 2:-0.84312 3:-0.703679 4:-0.818355 5:-0.700735 6:-0.656006 7:-0.271104 8:-0.539581 9:-0.61232 10:-0.638782 11:-0.815965 12:-0.993259 13:-0.621419 14:-0.468289 15:0.145952 16:0.651944 17:0.724174 18:0.611636 19:0.799074 20:0.795805 21:1.0 22:0.995093 23:0.972873 24:0.95103 25:0.796926 26:0.9392 27:0.931716 28:0.512762 29:-0.129464 30:-0.316288 31:-0.0746594 32:-0.190519 33:-0.390108 34:-0.372549 35:-0.591081 36:-0.868347 37:-0.488082 38:-0.687013 39:-0.928105 40:-0.794118 41:-0.92264 42:-0.940415 43:-0.769042 44:-0.624066 45:-0.616719 46:-0.892759 47:-0.802246 48:-0.719078 49:-0.797072 50:-0.769697 51:-0.691235 52:-0.763195 53:-0.241558 54:-0.590643 55:-0.945578 56:-0.620513 57:-0.761364 58:-0.894737 59:-0.807163 60:-0.916859 
0.5 1:-0.526549 2:-0.753108 3:-0.697109 4:-0.771279 5:-0.631245 6:-0.622682 7:-0.403139 8:-0.48269 9:-0.656449 10:-0.791506 11:-0.980717 12:-0.867233 13:-0.562113 14:-0.384552 15:-0.0829572 16:0.234073 17:0.446068 18:0.551792 19:0.576688 20:0.627783 21:1.0 22:0.961967 23:0.919466 24:0.918246 25:0.819262 26:0.798656 27:0.56529 28:0.151297 29:-0.324269 30:-0.228294 31:-0.0951499 32:-0.324646 33:-0.501838 34:-0.441441 35:-0.689271 36:-0.905444 37:-0.816094 38:-0.839659 39:-0.897955 40:-0.630937 41:-0.79062 42:-0.818559 43:-0.902237 44:-0.67328 45:-0.680125 46:-0.861492 47:-0.656284 48:-0.594489 49:-0.738516 50:-0.587879 51:-0.934263 52:-0.594864 53:-0.449351 54:-0.871345 55:-0.868481 56:-0.153846 57:-0.238636 58:-0.94508 59:-0.625344 60:-0.792148 
0.5 1:-0.681416 2:-0.704243 3:-0.990145 4:-0.883024 5:-0.862034 6:-0.592583 7:-0.077381 8:-0.428445 9:-0.707389 10:-0.933076 11:-0.9189 12:-0.664127 13:-0.398301 14:-0.223471 15:0.0416291 16:0.360676 17:0.486271 18:0.534545 19:0.517778 20:0.706122 21:1.0 22:0.769553 23:0.588217 24:0.745928 25:0.808607 26:0.874436 27:0.757538 28:0.279539 29:-0.426542 30:-0.61436 31:-0.452861 32:-0.577398 33:-0.621968 34:-0.720827 35:-0.833487 36:-0.945161 37:-0.842117 38:-0.794115 39:-0.797596 40:-0.708715 41:-0.82513 42:-0.906227 43:-0.802923 44:-0.644164 45:-0.763719 46:-0.820625 47:-0.694314 48:-0.643606 49:-0.498233 50:-0.241212 51:-0.693227 52:-0.720399 53:-0.522078 54:-0.929825 55:-0.791383 56:-0.651282 57:-0.698864 58:-0.839817 59:-0.768595 60:-0.889145 
0.5 1:-0.862832 2:-0.931419 3:-0.971748 4:-0.808845 5:-0.652549 6:-0.57807 7:-0.468615 8:-0.806395 9:-0.882423 10:-0.91992 11:-0.768326 12:-0.655334 13:-0.41903 14:-0.442508 15:-0.180459 16:-0.0653369 17:0.0446586 18:0.226805 19:0.381443 20:0.554366 21:0.893128 22:1.0 23:0.924764 24:0.883618 25:0.725 26:0.536293 27:0.264839 28:-0.1338 29:-0.0675731 30:0.180356 31:-0.0306267 32:-0.37295 33:-0.315762 34:-0.337785 35:-0.830418 36:-0.880847 37:-0.993877 38:-0.983779 39:-0.721063 40:-0.552941 41:-0.694962 42:-0.85641 43:-0.958878 44:-0.799536 45:-0.81433 46:-0.942403 47:-0.815647 48:-0.768194 49:-0.735487 50:-0.755152 51:-0.679283 52:-0.940086 53:-0.620779 54:-0.391813 55:-0.650794 56:-0.723077 57:-1.0 58:-0.908467 59:-0.862259 60:-0.903002 
0.5 1:-0.684366 2:-0.688813 3:-0.983574 4:-0.849263 5:-0.803196 6:-0.274389 7:0.178571 8:-0.500331 9:-0.800089 10:-0.565852 11:-0.313767 12:-0.0849941 13:0.124802 14:-0.148809 15:0.094192 16:0.435172 17:0.613926 18:0.830649 19:1.0 20:0.875428 21:0.813659 22:0.866885 23:0.46678 24:0.00542977 25:-0.207787 26:-0.444432 27:0.36569 28:0.735076 29:0.799716 30:0.576862 31:-0.1503 32:-0.794428 33:-0.741258 34:-0.518389 35:-0.422931 36:-0.55 37:-0.784168 38:-0.652074 39:-0.55661 40:-0.417647 41:-0.710481 42:-1.0 43:-0.90922 44:-0.7042 45:-0.621552 46:-0.924301 47:-0.723651 48:-0.622043 49:-0.688036 50:-0.418182 51:-0.770916 52:-0.840228 53:-0.911688 54:-0.345029 55:-0.342404 56:-0.733333 57:-0.869318 58:-0.881007 59:-0.432507 60:-0.274827 
0.5 1:-0.874631 2:-0.838834 3:-0.908016 4:-0.795055 5:-0.60842 6:-0.512497 7:-0.137446 8:-0.110915 9:-0.223752 10:-0.177177 11:-0.162626 12:-0.0243259 13:0.0844969 14:0.0163968 15:0.388705 16:0.690617 17:1.0 18:0.849974 19:0.686514 20:0.574058 21:0.608347 22:0.759738 23:0.428208 24:0.202336 25:0.417828 26:0.660315 27:0.226599 28:-0.0687526 29:0.247362 30:0.393203 31:0.203924 32:-0.139295 33:-0.237845 34:-0.198728 35:-0.691725 36:-0.617944 37:-0.558496 38:-0.801185 39:-0.744466 40:-0.338998 41:-0.627562 42:-0.512088 43:-0.67102 44:-0.709096 45:-0.446688 46:-0.39797 47:-0.300978 48:-0.102725 49:-0.219586 50:-0.524848 51:-0.756972 52:-0.651926 53:-0.646753 54:-0.608187 55:-0.687075 56:-0.712821 57:-0.5625 58:-0.926773 59:-0.713499 60:-0.939954 
0.5 1:-0.418879 2:-0.644235 3:-0.633377 4:-0.965763 5:-0.941162 6:-0.507122 7:-0.447511 8:-0.55237 9:-0.340441 10:-0.386243 11:-0.409046 12:-0.0952521 13:0.048798 14:-0.0580592 15:0.360417 16:0.504783 17:0.900943 18:0.963844 19:0.762466 20:0.629281 21:0.485877 22:0.635416 23:0.357211 24:0.271386 25:0.37459 26:0.562507 27:0.170711 28:0.193907 29:0.772119 30:0.692554 31:0.107575 32:-0.439901 33:-0.336134 34:-0.0304187 35:-0.450752 36:-0.834879 37:-0.630002 38:-0.724654 39:-0.99241 40:-0.745316 41:-0.717197 42:-0.478632 43:-0.560067 44:-0.749807 45:-0.369633 46:-0.250686 47:-0.32126 48:-0.363881 49:-0.328622 50:-0.0181818 51:-0.7749 52:-0.942939 53:-0.838961 54:-0.444444 55:-0.482993 56:-0.574359 57:-0.670455 58:-0.734554 59:-0.84022 60:-0.667436 
0.5 1:-0.702065 2:-0.713673 3:-0.7523 4:-0.915359 5:-0.485671 6:-0.429186 7:-0.261364 8:-0.579272 9:-0.682511 10:-0.524096 11:0.07472 12:0.136284 13:0.0908306 14:-0.00897185 15:0.299629 16:0.610218 17:0.962491 18:1.0 19:0.875237 20:0.668664 21:0.600759 22:0.685104 23:0.197203 24:0.142506 25:0.53791 26:0.604362 27:0.0757433 28:-0.443186 29:-0.0127841 30:0.28156 31:0.148992 32:-0.179735 33:-0.313452 34:-0.307048 35:-0.72241 36:-0.729435 37:-0.610977 38:-0.691588 39:-0.866751 40:-0.503486 41:-0.564331 42:-0.518193 43:-0.816371 44:-0.586189 45:-0.525448 46:-0.533736 47:-0.337559 48:-0.159629 49:-0.489147 50:-0.45697 51:-0.810757 52:-0.934379 53:-0.490909 54:-0.602339 55:-0.678005 56:-0.538462 57:-0.840909 58:-0.87643 59:-0.933884 60:-0.709007 
0.5 1:-0.464602 2:-0.732533 3:-0.731932 4:-0.861151 5:-0.127568 6:-0.176028 7:-0.537879 8:-0.663947 9:-0.495335 10:-0.445159 11:-0.192968 12:-0.155334 13:0.00820498 14:-0.255027 15:0.167419 16:0.568492 17:0.945912 18:1.0 19:0.966968 20:0.702483 21:0.671796 22:0.807995 23:0.119847 24:-0.222621 25:0.169262 26:0.293535 27:0.241307 28:-0.0288184 29:0.102679 30:-0.10131 31:-0.0742234 32:-0.345316 33:-0.266618 34:-0.219502 35:-0.572261 36:-0.807258 37:-0.789853 38:-0.899969 39:-0.53658 40:-0.332898 41:-0.469832 42:-0.350916 43:-0.556964 44:-0.849523 45:-0.65027 46:-0.396599 47:-0.203912 48:-0.356694 49:-0.572943 50:-0.607273 51:-0.814741 52:-0.891583 53:-0.797403 54:-0.602339 55:-0.564626 56:-0.687179 57:-0.670455 58:-0.729977 59:-0.768595 60:-0.78291 
0.5 1:-0.483776 2:0.393913 3:0.065046 4:-0.351878 5:-0.460817 6:-0.352862 7:0.125 8:-0.0240353 9:-0.136088 10:0.035893 11:-0.219339 12:-0.955744 13:-0.281704 14:0.0568217 15:0.238439 16:0.444128 17:0.658067 18:0.353351 19:-0.167684 20:-0.301156 21:0.0735666 22:0.498006 23:0.642047 24:1.0 25:0.746311 26:0.359401 27:0.371573 28:-0.0263483 29:-0.229302 30:-0.181208 31:-0.217439 32:-0.917097 33:-0.801323 34:-0.959936 35:-0.309809 36:0.364315 37:0.470588 38:-0.3316 39:-0.949188 40:-0.366013 41:-0.164794 42:-0.0691087 43:-0.384456 44:-0.469467 45:-0.349446 46:-0.532639 47:-0.425208 48:0.0733753 49:0.0318021 50:-0.633939 51:-0.555777 52:-0.708987 53:-0.657143 54:0.140351 55:-0.283447 56:-0.697436 57:-0.573864 58:-0.583524 59:-0.399449 60:-0.713626 
0.5 1:0.240413 2:-0.615945 3:-0.75887 4:-0.931051 5:-0.838701 6:-0.767804 7:0.140152 8:0.347299 9:-0.181993 10:-0.245531 11:-0.314334 12:-0.791911 13:-0.759321 14:-0.124265 15:0.345371 16:0.330552 17:0.39198 18:0.0923636 19:-0.307595 20:-0.558005 21:0.0086425 22:0.529087 23:0.712409 24:0.857392 25:0.871311 26:0.173257 27:0.164618 28:0.343351 29:-0.00507305 30:0.0998189 31:-0.0687738 32:-0.551561 33:-0.516539 34:-0.621622 35:0.0395827 36:0.477621 37:0.623442 38:-0.159613 39:-0.779675 40:-0.26122 41:-0.0452808 42:0.0139194 43:-0.210138 44:-0.424117 45:-0.257606 46:-0.232584 47:-0.133647 48:0.210542 49:0.338718 50:-0.132121 51:-0.74502 52:-0.532097 53:-0.309091 54:-0.596491 55:-0.85941 56:-0.758974 57:0.448864 58:-0.546911 59:-0.801653 60:-0.856813 
0.5 1:-0.617994 2:-0.797685 3:-0.60184 4:-0.761293 5:-0.461324 6:-0.531846 7:-0.0313853 8:-0.254686 9:-0.595735 10:-0.51523 11:-0.411031 12:-0.803634 13:-0.549446 14:-0.228834 15:0.0344067 16:0.455323 17:0.805616 18:0.846234 19:0.46013 20:-0.185146 21:-0.0322513 22:0.376751 23:0.524213 24:0.664788 25:0.443238 26:0.206741 27:0.10894 28:-0.205023 29:-0.320008 30:-0.185256 31:-0.524142 32:-0.636037 33:-0.692324 34:-0.882777 35:-0.283625 36:0.161895 37:-0.0212115 38:-0.591557 39:-0.867594 40:-0.318736 41:-0.159236 42:-0.287179 43:-0.564464 44:-0.546251 45:-0.521467 46:-0.800055 47:-0.568997 48:-0.223121 49:-0.244826 50:-0.837576 51:-0.492032 52:-0.700428 53:-0.464935 54:-0.561404 55:-0.814059 56:-0.641026 57:-0.426136 58:-0.276888 59:0.206612 60:-0.228637 
0.5 1:-0.836283 2:-0.560223 3:-0.60184 4:-0.781265 5:-0.490236 6:0.335662 7:0.228896 8:-0.112679 9:-0.0105138 10:0.192907 11:-0.226996 12:-0.715416 13:-0.10321 14:0.120759 15:0.390511 16:0.951761 17:1.0 18:0.853091 19:0.202609 20:-0.158818 21:-0.0537521 22:-0.0158471 23:0.381583 24:0.676263 25:0.6125 26:0.491133 27:0.601849 28:0.218403 29:-0.551136 30:-0.577714 31:0.268011 32:0.428443 33:-0.490497 34:-0.113725 35:0.69909 36:0.431452 37:-0.026897 38:0.138193 39:-0.0255113 40:-0.401089 41:-0.944181 42:-0.728694 43:-0.292125 44:-0.275444 45:-0.409156 46:-0.81898 47:-0.822166 48:-0.793351 49:-0.82635 50:-0.304242 51:-0.946215 52:-0.429387 53:-0.776623 54:0.105263 55:-0.455782 56:-0.907692 57:-0.806818 58:-0.858124 59:-0.37741 60:-0.672055 
0.5 1:-0.648968 2:-0.312473 3:-0.676741 4:-0.911555 5:-0.159523 6:1.0 7:1.0 8:0.555899 9:-0.00666371 10:-0.403975 11:-0.329647 12:-0.12456 13:0.554052 14:0.370114 15:0.587321 16:0.422756 17:-0.344524 18:-0.660675 19:-0.540922 20:-0.220248 21:0.00505902 22:-0.331357 23:-0.816255 24:0.0683332 25:0.24959 26:0.49598 27:0.335645 28:0.591396 29:0.608969 30:0.639928 31:0.59346 32:0.0435857 33:-0.803423 34:-0.4584 35:-0.00562545 36:-0.0510081 37:-0.780232 38:-0.601539 39:-0.490196 40:-0.190414 41:-0.404053 42:-0.731624 43:-0.559033 44:-0.666581 45:-0.741541 46:-0.780581 47:-0.79464 48:-0.881402 49:-0.884907 50:-0.633939 51:-0.830677 52:-0.514979 53:-0.646753 54:-0.596491 55:-0.854875 56:-0.425641 57:-0.829545 58:-0.83524 59:-0.559229 60:-0.78291 
0.48762993301799534 1:-0.345133 2:-0.630519 3:-0.781866 4:-0.810747 5:-1.0 6:-0.576458 7:-0.0449134 8:-0.25645 9:-0.548941 10:-0.62963 11:-0.318304 12:-0.114009 13:0.255506 14:0.136846 15:-0.109239 16:-0.578872 17:-0.623873 18:-0.412779 19:-0.490637 20:-0.233947 21:-0.167791 22:-0.558123 23:0.240225 24:0.788136 25:0.778279 26:0.455667 27:0.335645 28:0.668588 29:1.0 30:0.651007 31:0.0779292 32:-0.0624579 33:0.594035 34:0.433174 35:-0.244758 36:-0.702016 37:-0.727312 38:-0.630238 39:0.0134936 40:0.0163399 41:-0.540475 42:-0.134799 43:-0.27971 44:-0.534398 45:-0.899915 46:-0.870269 47:-0.883376 48:-0.755615 49:-0.835437 50:-0.786667 51:-0.758964 52:-0.831669 53:-0.85974 54:-0.421053 55:-0.283447 56:-0.246154 57:-0.619318 58:-0.624714 59:-0.360882 60:-0.769053 
-0.5 1:-0.297935 2:-0.765967 3:-0.620894 4:-0.42368 5:-0.135176 6:-0.0292932 7:0.181818 8:-0.685557 9:-0.653191 10:-0.452309 11:-0.813413 12:-0.337339 13:-0.417015 14:-0.397339 15:-0.336142 16:-0.356605 17:-0.496218 18:-0.45974 19:-0.483695 20:-0.770334 21:-0.419899 22:-0.260812 23:-0.372682 24:0.0595226 25:0.0221311 26:-0.217094 27:0.0209056 28:0.0372581 29:-0.236404 30:-0.394269 31:-0.213297 32:-0.0485284 33:0.0717211 34:0.169051 35:0.254373 36:0.508669 37:0.432757 38:0.204742 39:0.0558718 40:0.199346 41:0.423972 42:0.157753 43:-0.0337515 44:-0.277506 45:-0.436452 46:-0.331322 47:-0.352046 48:0.0218628 49:-0.230692 50:-0.42303 51:-0.466135 52:-0.791726 53:-0.355844 54:-0.116959 55:-0.741497 56:-0.410256 57:0.0852273 58:-0.372998 59:0.823691 60:1.0 
-0.5 1:0.914454 2:1.0 3:1.0 4:1.0 5:1.0 6:-0.0921795 7:-0.0151515 8:-1.0 9:-0.450911 10:-0.394251 11:-0.257621 12:-0.407093 13:-0.150137 14:-0.375271 15:-0.271943 16:-0.227763 17:-0.163403 18:-0.107532 19:0.00168315 20:-0.340967 21:-0.635118 22:-0.641345 23:-0.20017 24:0.289417 25:-0.0102459 26:-0.586959 27:-0.226389 28:0.166324 29:0.0344968 30:-0.240439 31:-0.295477 32:-0.557178 33:-0.918933 34:-0.740329 35:-0.453207 36:-0.0933468 37:-0.262191 38:-0.378392 39:-0.276407 40:-0.114597 41:-0.248871 42:-0.351648 43:-0.572482 44:-0.497295 45:-0.200739 46:-0.383982 47:-0.304238 48:-0.101527 49:-0.328622 50:-0.532121 51:-0.689243 52:0.00998573 53:0.0649351 54:-0.157895 55:-0.210884 56:-0.953846 57:-0.414773 58:-0.432494 59:-0.0247934 60:0.039261 
-0.5 1:-0.725664 2:-0.64252 3:-0.645861 4:-0.655254 5:-0.719503 6:-0.58667 7:-0.367965 8:0.16957 9:-0.665038 10:-0.952524 11:-0.443641 12:-0.302755 13:-0.5434 14:-0.291327 15:-0.0968001 16:0.0972929 17:-0.115739 18:-0.288935 19:-0.378077 20:-0.569991 21:-0.603078 22:-0.814334 23:-0.57762 24:0.0101424 25:-0.274795 26:-0.303668 27:0.0236369 28:-0.005352 29:-0.107143 30:-0.223394 31:-0.261689 32:-0.205796 33:-0.121285 34:-0.202544 35:-0.596809 36:-0.65 37:-0.853051 38:-0.64126 39:-0.392368 40:-0.220044 41:-0.408917 42:-0.278632 43:-0.337127 44:-0.503478 45:-0.413705 46:-0.519748 47:-0.6954 48:-0.380054 49:-0.352852 50:-0.629091 51:-0.838645 52:-0.477889 53:-0.0805195 54:-0.122807 55:0.287982 56:-0.558974 57:0.357955 58:0.0114416 59:0.0413223 60:-0.584296 
-0.5 1:-0.0943953 2:-0.092156 3:-0.00722733 4:-0.443176 5:-0.305098 6:-0.415211 7:-0.539502 8:-0.624256 9:-0.398193 10:-0.003575 11:0.468028 12:0.456331 13:0.42306 14:0.0564092 15:0.309459 16:0.738856 17:0.955652 18:0.861818 19:0.56175 20:0.439854 21:0.348229 22:-0.25754 23:-0.977111 24:-0.946112 25:-0.492418 26:-0.577487 27:-0.631684 28:-0.665089 29:-0.946429 30:-0.59135 31:-0.673678 32:-0.665918 33:-0.589205 34:-0.630313 35:-0.500051 36:-0.745968 37:-0.842117 38:-0.658937 39:-0.699979 40:-0.976035 41:-0.77927 42:-0.58022 43:-0.599379 44:-0.581036 45:-0.798692 46:-0.964619 47:-0.712061 48:-0.543576 49:-0.881878 50:-0.852121 51:-0.488048 52:-0.768902 53:0.335065 54:-0.426901 55:-0.401361 56:-0.0615385 57:0.289773 58:-0.75286 59:-0.38292 60:-0.422633 
-0.5 1:-0.528024 2:-0.89027 3:-0.552562 4:-0.466476 5:-0.857469 6:-0.420586 7:0.0362554 8:-0.315546 9:-0.123056 10:0.218075 11:0.487027 12:0.622216 13:0.96862 14:0.401258 15:0.471762 16:0.471402 17:0.714434 18:0.887377 19:0.743741 20:0.553296 21:0.106239 22:-0.418873 23:-1.0 24:-1.0 25:-0.52582 26:-0.131843 27:-0.0448577 28:-0.152326 29:-0.451502 30:-0.747736 31:-0.329046 32:-0.299483 33:-0.402709 34:-0.385268 35:-0.301422 36:-0.864113 37:-0.675705 38:-0.701154 39:-0.695551 40:-0.678431 41:-0.949971 42:-0.780708 43:-0.719126 44:-0.790776 45:-0.777083 46:-0.866429 47:-0.841 48:-0.648997 49:-0.626451 50:-0.551515 51:-0.398406 52:-0.326676 53:0.179221 54:-0.51462 55:-0.306122 56:-0.0307692 57:-0.835227 58:0.71167 59:-0.311295 60:-0.307159 
-0.5 1:-0.156342 2:0.0321474 3:-0.176741 4:-0.315264 5:-0.305605 6:-0.753292 7:-0.567641 8:-0.727894 9:-0.615874 10:-0.359645 11:-0.172267 12:0.178488 13:0.444364 14:-0.0427967 15:0.187481 16:0.4368 17:0.80085 18:0.815273 19:0.731328 20:0.504709 21:0.436341 22:0.0230038 23:-0.462965 24:-0.399037 25:-0.584016 26:-0.841613 27:-0.734216 28:-0.680733 29:-0.613636 30:-0.773943 31:-0.501907 32:-0.393395 33:-0.386328 34:-0.103551 35:-0.0133988 36:-0.44879 37:-0.709162 38:-0.532079 39:-0.403964 40:-0.604357 41:-0.867053 42:-0.905495 43:-0.798267 44:-0.813965 45:-0.884845 46:-0.848327 47:-0.608475 48:-0.31776 49:-0.225644 50:-0.357576 51:-0.571713 52:-0.0784593 53:-0.449351 54:-0.54386 55:-0.310658 56:-0.394872 57:-0.801136 58:-0.551487 59:0.250689 60:-0.454965 
-0.5 1:-0.783186 2:-0.788255 3:-0.837714 4:-0.844032 5:-0.706822 6:-0.801129 7:-0.446429 8:-0.412128 9:-0.845106 10:-0.650794 11:-0.24004 12:0.32415 13:0.581402 14:0.117253 15:0.281974 16:0.490942 17:0.79256 18:1.0 19:0.934778 20:0.792808 21:0.512015 22:0.386157 23:0.288757 24:0.173036 25:-0.28873 26:-1.0 27:-1.0 28:-0.878139 29:-0.818182 30:-0.76542 31:-0.393569 32:-0.0545945 33:-0.272918 34:0.0255432 35:-0.0569704 36:-0.308266 37:-0.569648 38:-0.241759 39:-0.303184 40:-0.696514 41:-0.910828 42:-0.673016 43:-0.598603 44:-0.90286 45:-0.819164 46:-0.878497 47:-0.904382 48:-0.866427 49:-0.811206 50:-0.813333 51:-0.727092 52:-0.820257 53:-0.6 54:0.298246 55:-0.129252 56:-0.641026 57:-0.818182 58:-0.556064 59:-0.741047 60:-0.939954 
-0.5 1:-0.569322 2:-0.556794 3:-0.580815 4:-0.779838 5:-0.724068 6:-0.744692 7:-0.658009 8:-0.731422 9:-0.589812 10:-0.233805 11:0.0174394 12:0.393904 13:0.381028 14:-0.0308343 15:0.118668 16:0.460818 17:0.633199 18:0.828156 19:0.99474 20:0.98095 21:0.629005 22:0.283918 23:0.148034 24:-0.052761 25:-0.403689 26:-0.862981 27:-0.893266 28:-1.0 29:-0.824675 30:-0.568978 31:-0.51782 32:-0.432487 33:-0.485876 34:-0.197456 35:-0.296921 36:-0.376613 37:-0.0688826 38:-0.170011 39:-0.694497 40:-0.289978 41:0.353098 42:0.0725275 43:-0.518169 44:-0.634115 45:-0.832528 46:-0.842019 47:-0.75661 48:-0.838874 49:-0.75265 50:-0.539394 51:-0.874502 52:-0.10699 53:-0.0441558 54:-0.25731 55:0.229025 56:-0.241026 57:-0.721591 58:-0.459954 59:-0.322314 60:-0.773672 
-0.5 1:-0.851032 2:-0.851693 3:-0.714849 4:-0.506419 5:-0.0636571 6:-0.558183 7:-0.606061 8:-0.542668 9:-0.798016 10:-0.744602 11:-0.373033 12:0.0996483 13:0.0436159 14:-0.0760029 15:0.230615 16:0.282719 17:0.590509 18:0.835429 19:0.964654 20:0.921661 21:0.714587 22:0.657499 23:0.63463 24:0.59164 25:0.20123 26:-0.133825 27:-0.186049 28:-0.171881 29:-0.136567 30:-0.313945 31:-0.444142 32:-0.408897 33:-0.428751 34:-0.559089 35:-0.609696 36:-0.542944 37:-0.376777 38:-0.153166 39:-0.307611 40:-0.433987 41:-0.678749 42:-0.578755 43:-0.431269 44:-0.727905 45:-0.837077 46:-0.915798 47:-0.914162 48:-0.718479 49:-0.897022 50:-0.861818 51:-0.938247 52:-0.557775 53:-0.511688 54:-0.567251 55:0.197279 56:0.4 57:-0.465909 58:-0.76659 59:-0.190083 60:-0.602771 
-0.5 1:-0.533923 2:-0.64252 3:-0.698423 4:-0.638612 5:-0.610449 6:-0.648482 7:-0.815476 8:-0.600441 9:-0.859914 10:-0.97712 11:-0.827591 12:-0.560961 13:-0.49561 14:-0.478189 15:-0.341559 16:-0.0111948 17:0.245674 18:0.396571 19:0.649274 20:0.728168 21:0.593803 22:0.490236 23:0.475681 24:0.446368 25:0.216598 26:-0.113338 27:-0.14907 28:-0.214697 29:-0.107955 30:-0.251944 31:-0.420817 32:-0.373175 33:-0.324793 34:-0.244515 35:-0.131431 36:-0.0530242 37:-0.0454844 38:-0.109702 39:-0.257432 40:-0.0984749 41:-0.142096 42:-0.107204 43:-9.05211E-4 44:-0.278021 45:-0.6352 46:-0.693637 47:-0.52807 48:-0.528601 49:-0.559818 50:-0.45697 51:-0.73506 52:-0.800285 53:-0.122078 54:-0.0292398 55:-0.854875 56:-0.358974 57:-0.642045 58:-0.812357 59:-0.267218 60:-0.602771 
-0.5 1:-0.390855 2:-0.529361 3:-0.544678 4:-0.733714 5:-0.417702 6:-0.235689 7:-0.1829 8:-0.851819 9:-0.841552 10:-1.0 11:-0.726074 12:-0.344373 13:-0.186124 14:-0.28349 15:-0.0994082 16:0.0645227 17:0.292923 18:0.400104 19:0.495477 20:0.715753 21:0.666105 22:0.585727 23:0.65773 24:0.860055 25:0.703893 26:0.154532 27:-0.231432 28:-0.38555 29:-0.398539 30:-0.586449 31:-0.371117 32:-0.0876208 33:-0.0500893 34:0.0384738 35:0.0168763 36:-0.084879 37:-0.150886 38:-0.170427 39:-0.176471 40:-0.059695 41:-0.226404 42:-0.201954 43:-0.336868 44:-0.348879 45:-0.39238 46:-0.509325 47:-0.634191 48:-0.683738 49:-0.542655 50:-0.713939 51:-0.982072 52:-0.617689 53:-0.0961039 54:-0.596491 55:-0.755102 56:-0.348718 57:-0.511364 58:-0.629291 59:-0.38292 60:-0.801386 
-0.5 1:-0.138643 2:-0.5988 3:-0.682654 4:-0.843557 5:-0.513568 6:-0.639344 7:-0.556277 8:-0.827122 9:-0.698208 10:-0.931932 11:-0.633348 12:-0.47626 13:-0.400029 14:-0.472827 15:-0.240044 16:-0.0834521 17:0.313439 18:0.718857 19:0.865559 20:0.864512 21:0.819562 22:0.828647 23:0.853979 24:0.713964 25:0.452254 26:0.0666373 27:-0.226599 28:-0.211816 29:-0.187906 30:-0.459678 31:-0.465068 32:-0.378791 33:-0.438832 34:-0.169051 35:-0.228598 36:-0.170363 37:-0.0857205 38:-0.160653 39:-0.0794856 40:-0.277996 41:-0.343602 42:-0.19072 43:-0.355231 44:-0.317186 45:-0.502985 46:-0.744377 47:-0.808041 48:-0.951482 49:-0.65472 50:-0.667879 51:-0.944223 52:-0.985735 53:-1.0 54:0.269006 55:-0.0793651 56:-0.605128 57:-0.352273 58:-0.491991 59:-0.38843 60:-0.56582 
-0.5 1:-0.632743 2:-0.944278 3:-0.785151 4:-0.650499 5:-0.504945 6:-0.633969 7:-0.251082 8:-0.505623 9:-0.88805 10:-0.762048 11:-0.760953 12:-0.822978 13:-0.846552 14:-0.650407 15:-0.477982 16:-0.179931 17:-0.0258004 18:0.316571 19:0.562802 20:0.653467 21:0.738406 22:0.881812 23:1.0 24:0.985862 25:0.91291 26:0.70195 27:0.414855 28:0.135653 29:-0.0219156 30:-0.089592 31:-0.215913 32:-0.541901 33:-0.728867 34:-0.520933 35:-0.325969 36:-0.257661 37:-0.44063 38:-0.599043 39:-0.410289 40:-0.251198 41:-0.216908 42:0.0713065 43:-0.156602 44:-0.494203 45:-0.754336 46:-0.537027 47:-0.278884 48:-0.271039 49:-0.365977 50:-0.21697 51:-0.496016 52:-0.412268 53:0.335065 54:-0.0233918 55:-0.85941 56:-0.671795 57:-0.329545 58:-0.661327 59:-0.575758 60:-0.722864 
-0.5 1:-0.712389 2:-0.901414 3:-0.876478 4:-0.53495 5:-0.184377 6:-0.830153 7:-0.626623 8:-0.659096 9:-0.875907 10:-0.836122 11:-0.762938 12:-0.55891 13:-0.27278 14:-0.419614 15:-0.288996 16:-0.0156727 17:0.17335 18:0.266494 19:0.593309 20:0.787671 21:0.769393 22:0.864636 23:1.0 24:0.816002 25:0.691803 26:0.530124 27:0.514235 28:0.530259 29:0.242695 30:-0.214232 31:-0.652316 32:-0.821613 33:-0.751549 34:-0.489984 35:-0.2556 36:-0.218145 37:-0.366499 38:-0.600915 39:-0.393 40:-0.149237 41:-0.0772438 42:-0.0349206 43:-0.128411 44:-0.351198 45:-0.402616 46:-0.676083 47:-0.583484 48:-0.67056 49:-0.70419 50:-0.556364 51:-0.792829 52:-0.689016 53:-0.501299 54:-0.701754 55:-0.886621 56:-0.512821 57:-0.5625 58:-0.524027 59:-0.118457 60:-0.413395 
-0.5 1:-0.240413 2:-0.246464 3:0.302234 4:0.210651 5:0.601826 6:0.152916 7:-0.683983 8:-0.015656 9:-0.740856 10:-0.820678 11:-0.625408 12:-0.416764 13:-0.274795 14:-0.362277 15:-0.150366 16:-0.189497 17:0.0995752 18:0.360208 19:0.694298 20:0.836045 21:0.825253 22:1.0 23:0.900816 24:0.815798 25:0.659221 26:0.35081 27:0.271772 28:-0.135653 29:-0.530032 30:-0.700224 31:-0.789864 32:-0.867446 33:-0.783052 34:-0.537891 35:-0.138591 36:-0.00342742 37:-0.10562 38:-0.129042 39:-0.250264 40:-0.393682 41:-0.294036 42:0.204884 43:-0.0606492 44:-0.642618 45:-0.4882 46:-0.643719 47:-0.810576 48:-0.510632 49:-0.526502 50:-0.723636 51:-0.404382 52:-0.326676 53:0.00779221 54:0.444444 55:-0.655329 56:-0.246154 57:-0.0454545 58:-0.345538 59:-0.267218 60:-0.769053 
-0.5 1:-0.352507 2:-0.600514 3:-0.551905 4:-0.542083 5:-0.325387 6:-0.252352 7:-0.213203 8:-0.684234 9:-0.675404 10:-0.553268 11:-0.288246 12:-0.0952521 13:0.102058 14:-0.170259 15:0.067108 16:0.06839 17:0.351363 18:0.593766 19:0.830423 20:0.822132 21:1.0 22:0.994275 23:0.807778 24:0.573404 25:0.324795 26:-0.0300694 27:-0.350562 28:-0.547139 29:-0.387784 30:-0.326302 31:-0.421035 32:-0.705909 33:-0.483356 34:0.0645469 35:0.166616 36:0.0800403 37:-0.0892193 38:-0.376937 39:-0.40038 40:-0.55098 41:-0.695657 42:-0.370452 43:-0.229277 44:-0.475135 45:-0.671595 46:-0.747943 47:-0.680551 48:-0.863432 49:-0.616355 50:-0.655758 51:-0.727092 52:-0.680456 53:-0.807792 54:0.333333 55:-0.442177 56:-0.589744 57:0.221591 58:0.455378 59:-0.157025 60:-0.78291 
-0.5 1:-0.60472 2:-0.491642 3:-0.578844 4:-0.918688 5:-0.60842 6:-0.155603 7:-0.393398 8:-0.540022 9:-0.616467 10:-0.526956 11:-0.516234 12:-0.228312 13:-0.110119 14:-0.278952 15:-0.169826 16:-0.00793812 17:0.208372 18:0.58961 19:0.859668 20:0.871361 21:0.847175 22:0.887537 23:0.64565 24:0.543694 25:0.38668 26:0.15277 27:0.119655 28:-0.141622 29:-0.276989 30:-0.514648 31:-0.628774 32:-0.706358 33:-0.348735 34:-0.208267 35:-0.459139 36:-0.532056 37:-0.285371 38:-0.390454 39:-0.284841 40:0.0130719 41:-0.143254 42:-0.119658 43:-0.399974 44:-0.626385 45:-0.710833 46:-0.695283 47:-0.762767 48:-0.837676 49:-0.75366 50:-0.566061 51:-0.782869 52:-0.603424 53:-0.142857 54:-0.134503 55:-0.818594 56:-0.646154 57:-0.710227 58:-0.8627 59:-0.757576 60:-0.662818 
-0.5 1:-0.853982 2:-0.814831 3:-0.833114 4:-0.844983 5:-0.416688 6:0.0534802 7:-0.212121 8:-0.614553 9:-0.62239 10:-0.517804 11:-0.377003 12:-0.197831 13:0.00417446 14:-0.150046 15:0.0486508 16:0.34195 17:0.46161 18:0.643429 19:0.79655 20:0.910959 21:1.0 22:0.996319 23:0.766663 24:0.486323 25:0.255533 26:0.28274 27:0.413174 28:0.345615 29:0.0892857 30:-0.110259 31:-0.2497 32:-0.521681 33:-0.871469 34:-0.750291 35:-0.52378 36:-0.350605 37:-0.460529 38:-0.634189 39:-0.600464 40:-0.558824 41:-0.538159 42:-0.312576 43:-0.328592 44:-0.503994 45:-0.642877 46:-0.724904 47:-0.65556 48:-0.275232 49:-0.265018 50:-0.578182 51:-0.575697 52:-0.25535 53:-0.236364 54:0.444444 55:-0.587302 56:-0.810256 57:-0.732955 58:-0.350114 59:-0.438017 60:-0.91224 
-0.5 1:-0.411504 2:-0.631376 3:-0.716163 4:-0.626248 5:-0.821456 6:-0.401774 7:0.0654762 8:-0.355678 9:-0.77995 10:-0.467467 11:-0.427194 12:-0.182591 13:0.0807543 14:-0.0147468 15:0.171833 16:0.312436 17:0.464719 18:0.585662 19:0.675153 20:0.558861 21:0.747892 22:0.669563 23:0.544771 24:0.688352 25:0.47418 26:0.214231 27:0.057464 28:-0.334088 29:-0.386364 30:-0.417705 31:-0.656894 32:-0.858908 33:-0.434842 34:-0.188553 35:-0.169684 36:-0.10121 37:-0.266783 38:-0.301653 39:-0.268817 40:-0.26427 41:-0.0689056 42:0.0278388 43:-0.261865 44:-0.276475 45:-0.319022 46:-0.898793 47:-0.708439 48:-0.675951 49:-0.821302 50:-0.842424 51:-0.557769 52:-0.894437 53:-0.319481 54:-0.397661 55:-0.786848 56:-0.174359 57:-0.215909 58:-0.661327 59:0.349862 60:-0.113164 
-0.5 1:-0.883481 2:-0.719674 3:-0.808804 4:-0.848787 5:-0.376617 6:-0.0900296 7:0.0151515 8:-0.27806 9:-0.468384 10:-0.538968 11:-0.450163 12:-0.158851 13:0.14006 14:0.00732185 15:0.0709199 16:0.00651333 17:0.26246 18:0.444364 19:0.613718 20:0.755137 21:0.977024 22:1.0 23:0.735085 24:0.719496 25:0.810246 26:0.707897 27:0.527261 28:0.300124 29:0.110187 30:-0.274955 31:-0.596948 32:-0.829252 33:-0.870209 34:-0.953577 35:-0.918994 36:-0.621774 37:-0.613164 38:-0.405428 39:-0.213367 40:-0.385185 41:-0.640764 42:-0.598046 43:-0.738782 44:-0.61041 45:-0.594256 46:-0.699122 47:-0.575154 48:-0.41779 49:-0.290257 50:-0.318788 51:-0.569721 52:-0.586305 53:-0.444156 54:0.350877 55:-0.283447 56:-0.738462 57:-0.573864 58:-0.762014 59:-0.504132 60:-0.718245 
-0.5 1:-0.685841 2:-0.914273 3:-0.924442 4:-0.627199 5:-0.467411 6:-0.245364 7:-0.0568182 8:-0.584564 9:-0.599289 10:-0.395395 11:-0.338721 12:-0.157972 13:-0.229883 14:-0.372383 15:-0.252884 16:-0.11724 17:-0.0848617 18:0.22161 19:0.432779 20:0.722175 21:0.862774 22:0.921071 23:0.814772 24:0.885872 25:1.0 26:0.879943 27:0.751024 28:0.489502 29:0.405032 30:0.144775 31:-0.264305 32:-0.526848 33:-0.64612 34:-0.839746 35:-0.774982 36:-0.745161 37:-0.584736 38:-0.405012 39:-0.247734 40:-0.196296 41:-0.328778 42:-0.121368 43:-0.228501 44:-0.541613 45:-0.563548 46:-0.671146 47:-0.652662 48:-0.541779 49:-0.344775 50:-0.241212 51:-0.631474 52:-0.743224 53:-0.101299 54:-0.608187 55:-0.69161 56:-0.533333 57:-0.704545 58:-0.80778 59:-0.658402 60:-0.847575 
-0.5 1:-0.486726 2:-0.595371 3:-0.81406 4:-0.927722 5:-0.3193 6:-0.0249933 7:-0.287879 8:-0.3129 9:-0.517844 10:-0.619334 11:-0.517936 12:-0.437866 13:-0.228732 14:-0.319996 15:-0.207744 16:-0.145736 17:0.0330536 18:0.232 19:0.367768 20:0.450985 21:0.658305 22:0.722114 23:0.791035 24:0.883618 25:0.904918 26:1.0 27:0.904822 28:0.947509 29:0.789367 30:0.402578 31:0.0855586 32:-0.381712 33:-0.569883 34:-0.627557 35:-0.597832 36:-0.707056 37:-0.921277 38:-0.768119 39:-0.708202 40:-0.52963 41:-0.777186 42:-0.7558 43:-0.489719 44:-0.56403 45:-0.465169 46:-0.67718 47:-0.717856 48:-0.703504 49:-0.503281 50:-0.529697 51:-0.501992 52:-0.694722 53:-0.038961 54:-0.736842 55:-0.591837 56:-0.764103 57:-0.642045 58:-0.491991 59:-0.603306 60:-0.875289 
-0.5 1:-0.637168 2:-0.777111 3:-0.863338 4:-0.671422 5:-0.342125 6:-0.241602 7:-0.305736 8:-0.294818 9:-0.470161 10:-0.456599 11:-0.262442 12:5.86166E-4 13:-0.0424644 14:-0.335465 15:-0.138529 16:0.0657439 17:0.220184 18:0.350857 19:0.438039 20:0.59482 21:0.661889 22:0.720274 23:0.73445 24:0.919475 25:0.941803 26:0.806366 27:0.700809 28:0.752573 29:0.537338 30:0.086183 31:-0.175586 32:-0.448214 33:-0.446183 34:-0.606995 35:-0.807303 36:-0.978831 37:-0.79204 38:-0.563897 39:-0.73308 40:-0.785185 41:-0.586798 42:-0.517216 43:-0.511962 44:-0.646998 45:-0.608757 46:-0.915798 47:-0.864904 48:-0.637017 49:-0.597173 50:-0.590303 51:-0.731076 52:-0.389444 53:-0.116883 54:-0.315789 55:-0.927438 56:-0.384615 57:-0.710227 58:-0.91762 59:-0.85124 60:-0.921478 
-0.5 1:-0.511799 2:-0.568796 3:-0.95795 4:-0.91203 5:-0.814862 6:-0.659769 7:-0.510281 8:-0.524146 9:-0.658522 10:-0.60103 11:-0.568978 12:-0.368699 13:-0.204549 14:-0.465195 15:-0.201725 16:0.0508854 17:0.0645529 18:0.132052 19:0.167052 20:0.304152 21:0.385329 22:0.568551 23:0.848257 24:0.955128 25:0.946311 26:1.0 27:0.937388 28:0.990943 29:0.641843 30:0.152019 31:0.0594005 32:0.00269602 33:-0.359656 34:-0.712984 35:-0.852102 36:-0.690927 37:-0.459217 38:-0.374649 39:-0.441704 40:-0.383878 41:-0.393631 42:-0.360195 43:-0.468512 44:-0.46689 45:-0.537958 46:-0.666484 47:-0.633104 48:-0.554358 49:-0.610298 50:-0.878788 51:-0.709163 52:-0.908702 53:-0.392208 54:-0.432749 55:-0.519274 56:-0.497436 57:-0.721591 58:-0.90389 59:-0.570248 60:-0.884527 
-0.5 1:-0.783186 2:-0.969996 3:-0.852825 4:-0.817879 5:-0.714431 6:-0.559796 7:-0.277597 8:-0.548842 9:-0.562565 10:-0.523524 11:-0.468311 12:-0.31653 13:-0.163668 14:-0.266577 15:-0.124887 16:0.0529208 17:0.170241 18:0.320104 19:0.433831 20:0.59161 21:0.776771 22:0.932113 23:1.0 24:0.978076 25:0.872131 26:0.777729 27:0.828553 28:0.820502 29:0.555804 30:0.151593 31:-0.28436 32:-0.34936 33:-0.621338 34:-1.0 35:-0.817122 36:-0.655645 37:-0.557839 38:-0.488406 39:-0.605735 40:-0.433987 41:-0.304459 42:-0.391941 43:-0.517134 44:-0.443442 45:-0.636622 46:-0.789358 47:-0.612459 48:-0.433363 49:-0.3579 50:-0.449697 51:-0.74502 52:-0.529244 53:-0.324675 54:-0.391813 55:-0.746032 56:-0.215385 57:-0.517045 58:-0.84897 59:-0.713499 60:-0.889145 
-0.5 1:-0.654867 2:-0.903129 3:-0.827858 4:-0.666191 5:-0.416181 6:-0.228164 7:-0.372835 8:-0.482249 9:-0.394639 10:-0.308451 11:-0.272366 12:-0.201348 13:-0.0911185 14:-0.172115 15:0.0380179 16:0.205984 17:0.42721 18:0.496519 19:0.521565 20:0.592894 21:0.788153 22:0.846028 23:0.865423 24:0.96988 25:0.954098 26:1.0 27:0.978149 28:0.809798 29:0.453328 30:0.0961969 31:-0.130899 32:-0.255224 33:-0.663551 34:-0.842501 35:-0.945791 36:-0.732661 37:-0.518259 38:-0.65249 39:-0.73793 40:-0.539216 41:-0.672727 42:-0.453724 43:-0.347989 44:-0.622778 45:-0.808644 46:-0.735326 47:-0.459616 48:-0.324349 49:-0.532559 50:-0.532121 51:-0.721116 52:-0.945792 53:-0.672727 54:-0.181287 55:-0.972789 56:-0.338462 57:-0.744318 58:0.102975 59:-0.581267 60:-0.685912 
-0.5 1:-0.623894 2:-0.865409 3:-0.785808 4:-0.910128 5:-0.617043 6:-0.379737 7:-0.301948 8:-0.325689 9:-0.424848 10:-0.425425 11:-0.455267 12:-0.366061 13:-0.199655 14:-0.218727 15:0.0159494 16:0.0889477 17:0.298104 18:0.335896 19:0.267831 20:0.3125 21:0.538575 22:0.666496 23:0.781498 24:0.970495 25:1.0 26:0.866725 27:0.772455 28:0.609922 29:0.356331 30:0.0565676 31:-0.16752 32:-0.340598 33:-0.672792 34:-0.875782 35:-0.880127 36:-0.708669 37:-0.502515 38:-0.568888 39:-0.660763 40:-0.5 41:-0.52542 42:-0.549451 43:-0.462822 44:-0.544705 45:-0.681831 46:-0.786341 47:-0.51322 48:-0.424978 49:-0.396265 50:-0.2 51:-0.60757 52:-0.483595 53:0.0337662 54:-0.561404 55:-0.8322 56:-0.548718 57:-0.232955 58:-0.583524 59:-0.426997 60:-0.598152 
-0.5 1:-0.449853 2:-0.72739 3:-0.557819 4:-0.600571 5:-0.391326 6:-0.240527 7:0.136905 8:0.128115 9:-0.183474 10:-0.254969 11:-0.0483482 12:0.0838218 13:0.0534043 14:-0.0916778 15:0.0699167 16:-0.0512925 17:-0.0703554 18:0.140156 19:0.490637 20:0.357235 21:0.350337 22:0.720478 23:0.810745 24:0.865997 25:0.566393 26:0.688292 27:0.844732 28:0.39893 29:0.143466 30:-0.019495 31:-0.123052 32:-0.387778 33:-0.796073 34:-0.823211 35:-0.673315 36:-0.709879 37:-0.854363 38:-0.780597 39:-0.659498 40:-0.581264 41:-0.439954 42:-0.310623 43:-0.655761 44:-0.706261 45:-0.627523 46:-0.606967 47:-0.773995 48:-0.940102 49:-0.90106 50:-0.682424 51:-0.697211 52:-0.295292 53:-0.657143 54:0.479532 55:-0.668934 56:-0.451282 57:-0.409091 58:-0.702517 59:-0.471074 60:-0.718245 
-0.5 1:-0.685841 2:-0.273896 3:-0.352825 4:-0.824061 5:-0.467411 6:-0.167428 7:-0.15368 8:-0.0910695 9:-0.0463498 10:-0.026455 11:-0.137672 12:-0.00146542 13:0.104362 14:-0.0805404 15:0.0362123 16:0.304905 17:0.673816 18:0.683325 19:0.651588 20:0.668878 21:0.578204 22:0.700849 23:0.924128 24:1.0 25:0.868238 26:0.869809 27:0.804601 28:0.40387 29:0.253247 30:0.0768084 31:-0.341907 32:-0.541002 33:-0.743568 34:-0.347536 35:-0.294057 36:-0.546169 37:-0.549092 38:-0.548092 39:-0.679317 40:-0.602832 41:-0.371395 42:-0.333578 43:-0.920341 44:-0.68101 45:-0.472846 46:-0.519199 47:-0.6092 48:-0.563941 49:-0.755679 50:-0.53697 51:-0.683267 52:-0.532097 53:-0.0337662 54:0.461988 55:-0.39229 56:-0.379487 57:-0.357955 58:-0.588101 59:-0.939394 60:-0.861432 
-0.5 1:0.0324484 2:-0.277325 3:-0.624179 4:-0.923918 5:-0.596754 6:-0.0868046 7:0.0189394 8:-0.188093 9:-0.145565 10:0.164879 11:0.298171 12:0.469226 13:0.662588 14:0.357533 15:0.713713 16:0.945044 17:0.729147 18:0.732156 19:0.779928 20:0.983305 21:0.784992 22:0.623351 23:0.655187 24:0.496158 25:0.158402 26:0.00605794 27:0.0845677 28:0.0543434 29:-0.0586445 30:-0.18483 31:-0.298965 32:-0.512469 33:-0.789772 34:-0.675464 35:-0.794211 36:-0.695968 37:-0.682484 38:-0.781013 39:-0.726755 40:-0.452505 41:-0.565953 42:-0.711111 43:-0.775249 44:-0.460964 45:-0.573784 46:-0.814591 47:-0.674393 48:-0.444744 49:-0.335689 50:-0.791515 51:-0.569721 52:-0.586305 53:-0.397403 54:-0.497076 55:-0.138322 56:-0.805128 57:-0.642045 58:-0.560641 59:-0.548209 60:-0.454965 
-0.5 1:-0.713864 2:-0.781397 3:-0.931012 4:-0.662387 5:-0.494294 6:-0.151841 7:0.614177 8:0.501654 9:-0.0407226 10:0.147433 11:0.0361548 12:-0.678195 13:0.277674 14:1.0 15:0.826863 16:0.654793 17:0.377059 18:0.548052 19:0.745214 20:0.679152 21:0.772344 22:0.89224 23:1.0 24:0.789981 25:0.55041 26:0.630135 27:0.265049 28:-0.122273 29:-0.0689935 30:-0.408118 31:-0.506267 32:-0.87104 33:-1.0 34:-0.747536 35:-0.670451 36:-0.583065 37:-0.798819 38:-0.682021 39:-0.363272 40:-0.275163 41:-0.534684 42:-0.721856 43:-0.310746 44:-0.333419 45:-0.603924 46:-0.702962 47:-0.499095 48:-0.208745 49:0.0792529 50:-0.212121 51:-0.370518 52:-0.8602 53:-0.2 54:-0.561404 55:0.659864 56:-0.502564 57:-0.295455 58:0.304348 59:-0.294766 60:-0.921478 
-0.5 1:-0.470501 2:-0.502786 3:-0.59724 4:-0.773657 5:-0.904641 6:-0.290513 7:0.103355 8:0.181477 9:-0.112987 10:-0.289575 11:-0.0942861 12:0.102872 13:0.263855 14:0.170878 15:0.583509 16:0.650723 17:0.603564 18:0.787429 19:0.963812 20:0.782106 21:0.76602 22:0.870565 23:0.813924 24:0.577093 25:0.327459 26:0.188897 27:-0.0788948 28:-0.361054 29:-0.0487013 30:-0.316288 31:-0.434768 32:-0.806111 33:-0.944135 34:-0.724854 35:-0.655723 36:-0.649798 37:-0.70304 38:-0.882916 39:-0.481763 40:-0.370588 41:-0.712334 42:-0.651526 43:-0.256433 44:-0.472559 45:-0.697469 46:-0.617389 47:-0.61427 48:-0.684337 49:-0.601212 50:-0.556364 51:-0.296813 52:-0.686163 53:-0.698701 54:0.327485 55:-0.882086 56:-0.574359 57:-0.3125 58:-0.496568 59:-0.465565 60:-0.445727 
-0.5 1:1.0 2:0.0458637 3:-0.0998686 4:-0.321921 5:-0.133147 6:-0.287288 7:-0.0584416 8:-0.0712238 9:-0.539464 10:-0.441155 11:0.125195 12:0.538101 13:1.0 14:0.388058 15:0.353396 16:0.582943 17:0.87193 18:0.776623 19:0.820324 20:0.535959 21:0.569983 22:0.587568 23:0.515948 24:0.306424 25:-0.0532787 26:0.0245622 27:-0.114193 28:0.102511 29:-0.112622 30:-0.412805 31:-0.52 32:-0.565266 33:-0.459204 34:-0.405617 35:-0.482459 36:-0.80625 37:-0.692543 38:-0.423313 39:-0.318575 40:-0.429412 41:-0.78205 42:-0.413431 43:-0.119617 44:-0.548312 45:-0.806938 46:-0.708722 47:-0.767113 48:-0.681342 49:-0.463907 50:-0.340606 51:-0.659363 52:-0.686163 53:-0.355844 54:0.953216 55:-0.732426 56:-0.676923 57:-0.892045 58:-0.652174 59:-0.201102 60:-0.792148 
-0.5 1:-0.368732 2:-0.622803 3:-0.855453 4:-0.548264 5:0.108293 6:0.348562 7:0.0974026 8:-0.288644 9:-0.48882 10:-0.150579 11:-0.0060967 12:0.502931 13:0.724197 14:0.561101 15:0.6774 16:0.802158 17:1.0 18:0.773714 19:0.737639 20:0.547517 21:0.400506 22:0.505368 23:0.231112 24:-0.391251 25:-0.62377 26:-0.700848 27:-0.40582 28:-0.472417 29:-0.633726 30:-0.774582 31:-0.881635 32:-0.784767 33:-0.635619 34:-0.806677 35:-0.702567 36:-0.806653 37:-0.51651 38:-0.53395 39:-0.606789 40:-0.76841 41:-0.82791 42:-0.322344 43:-0.383163 44:-0.934295 45:-0.440717 46:-0.593253 47:-0.842811 48:-0.624438 49:-0.48208 50:0.146667 51:-0.505976 52:-0.241084 53:0.038961 54:-0.233918 55:-0.188209 56:-0.738462 57:-0.761364 58:-0.487414 59:-0.168044 60:-0.56582 
-0.5 1:0.674041 2:-0.00814402 3:-0.440867 4:-0.857347 5:-0.916307 6:-0.373824 7:0.290043 8:0.149283 9:0.264919 10:0.505792 11:1.41784E-4 12:-0.778722 13:-0.87563 14:-0.686088 15:-0.222389 16:-0.299817 17:-0.44213 18:-0.573403 19:-0.249737 20:0.656464 21:0.952993 22:-0.0878233 23:-0.990039 24:-0.609876 25:-0.772951 26:-0.574182 27:-0.761319 28:-0.513174 29:-0.102881 30:0.254714 31:-0.484251 32:-0.350258 33:0.0276173 34:0.35983 35:0.718932 36:0.707056 37:0.639405 38:0.795362 39:0.782838 40:0.300436 41:-0.432542 42:-0.79243 43:-0.69559 44:-0.305849 45:0.482514 46:0.160724 47:-0.152481 48:0.154837 49:0.102473 50:0.229091 51:-0.545817 52:-0.740371 53:-0.688312 54:-0.561404 55:-0.274376 56:-0.45641 57:0.0625 58:-0.368421 59:-0.630854 60:-0.630485 
-0.5 1:0.405605 2:-0.301329 3:-0.596583 4:-0.738469 5:-0.721025 6:-0.406074 7:-0.507035 8:0.838148 9:0.678958 10:0.404833 11:-0.0928683 12:-0.570926 13:-0.455304 14:-0.419614 15:-0.158792 16:0.0482394 17:-0.567506 18:-0.686442 19:-0.702504 20:0.640625 21:1.0 22:-0.211328 23:-0.915863 24:-0.653929 25:-0.553484 26:-0.367992 27:-0.493224 28:-0.348086 29:-0.262784 30:-0.0199212 31:-0.600218 32:-0.341496 33:-0.0960832 34:0.25151 35:0.325969 36:0.470766 37:0.531817 38:0.540813 39:0.352941 40:0.120261 41:-0.44366 42:-0.636386 43:-0.477822 44:-0.425148 45:0.200171 46:-0.158804 47:-0.518653 48:-0.191974 49:0.0671378 50:0.209697 51:-0.589641 52:-0.814551 53:-0.605195 54:0.71345 55:-0.165533 56:0.0666667 57:-0.301136 58:-0.0938215 59:0.151515 60:-0.838337 
-0.5 1:0.143068 2:-0.399057 3:-0.778581 4:-0.238231 5:-0.359371 6:-0.933351 7:-0.600649 8:0.156781 9:0.655264 10:0.857858 11:0.336453 12:-0.312134 13:-0.577947 14:-0.15974 15:-0.100411 16:-0.100957 17:-0.37478 18:-0.246753 19:0.0164107 20:0.788099 21:0.987142 22:-0.290461 23:-0.904843 24:-0.998156 25:-0.57418 26:-0.325917 27:-0.626431 28:0.0216138 29:0.370536 30:0.641206 31:-0.162071 32:-0.250281 33:0.108684 34:0.659989 35:0.583308 36:0.430242 37:0.466215 38:0.614849 39:0.524352 40:0.289107 41:-0.0286045 42:0.141148 43:0.158153 44:-0.0409688 45:0.334376 46:0.0529347 47:-0.72184 48:-0.121294 49:-0.215548 50:0.13697 51:-0.615538 52:-0.172611 53:1.0 54:0.660819 55:-0.23356 56:0.25641 57:-0.215909 58:-0.679634 59:-0.867769 60:-0.561201 
-0.5 1:0.575221 2:-0.0878697 3:-0.840999 4:-0.629577 5:-0.654578 6:-0.450148 7:0.779762 8:1.0 9:0.614394 10:0.67396 11:0.42209 12:-0.409437 13:-0.361451 14:-0.501702 15:0.327114 16:0.316914 17:-0.725417 18:-0.904 19:-0.19272 20:0.725599 21:0.576728 22:-0.285758 23:-0.758398 24:-0.718881 25:-0.621721 26:-0.575724 27:-0.636516 28:0.204199 29:0.149148 30:0.344839 31:-0.271281 32:-0.124017 33:0.536071 34:0.799894 35:1.0 36:0.841129 37:0.975727 38:0.855048 39:0.463841 40:0.0183007 41:-0.6 42:-0.521368 43:-0.568343 44:-0.259985 45:0.243674 46:-0.150576 47:-0.428468 48:-0.668763 49:-0.662797 50:-0.493333 51:-0.657371 52:-0.509272 53:-0.454545 54:0.309942 55:0.22449 56:-0.85641 57:-0.539773 58:-0.455378 59:-0.553719 60:-0.367206 
-0.5 1:-0.883481 2:-0.481354 3:-0.263469 4:-0.45554 5:-0.829571 6:-0.395324 7:0.332251 8:0.989416 9:0.928624 10:0.420277 11:-0.132001 12:-0.824736 13:-0.188139 14:-0.240177 15:-0.250075 16:-0.253816 17:-0.813905 18:-0.794701 19:-0.540501 20:0.826199 21:0.953415 22:-0.38309 23:-0.707322 24:-0.664993 25:-0.867828 26:-0.444432 27:-0.480618 28:0.157678 29:-0.103084 30:0.43198 31:-0.675858 32:-0.463941 33:0.204452 34:0.795231 35:0.717909 36:0.875 37:0.74415 38:0.891858 39:0.338815 40:-0.0590414 41:0.112449 42:-0.0835165 43:-0.59731 44:-0.626643 45:-0.243105 46:-0.504663 47:-0.384643 48:0.532794 49:0.139828 50:-0.512727 51:-0.0438247 52:-0.355207 53:-0.116883 54:1.0 55:-0.310658 56:0.651282 57:0.125 58:-0.244851 59:0.344353 60:-0.316397 
-0.5 1:0.582596 2:0.0904415 3:-0.401445 4:-0.440799 5:-0.386761 6:-0.124429 7:0.0362554 8:0.855347 9:1.0 10:0.61533 11:0.260173 12:-0.376905 13:-0.758457 14:-0.457358 15:-0.0606881 16:-0.0846733 17:-0.77909 18:-0.901506 19:-0.418683 20:0.787457 21:0.854975 22:-0.0518352 23:-0.834057 24:-0.720316 25:-0.48832 26:0.0327129 27:-0.333333 28:0.205228 29:0.080763 30:0.67487 31:0.123924 32:0.132105 33:-0.0320277 34:0.280551 35:0.692544 36:0.678629 37:0.764487 38:0.820318 39:0.547965 40:0.0381264 41:-0.220845 42:0.0776557 43:0.186086 44:0.157176 45:0.596815 46:0.180746 47:-0.657733 48:-0.524409 49:-0.723372 50:-0.626667 51:-0.721116 52:0.275321 53:0.0805195 54:-0.578947 55:-0.464853 56:-0.164103 57:-0.431818 58:-0.0755149 59:-0.0247934 60:-0.163972 
-0.5 1:-0.387906 2:-0.23189 3:-0.462549 4:-0.640989 5:-0.950292 6:-0.905939 7:-0.709957 8:-0.117089 9:0.12898 10:1.0 11:1.0 12:0.40592 13:-0.18929 14:-0.653914 15:-0.451098 16:-0.272339 17:-0.552792 18:-0.556987 19:-0.411319 20:-0.0978168 21:0.267917 22:0.683877 23:0.944686 24:1.0 25:0.316598 26:-0.0302897 27:-0.255594 28:-0.349527 29:-0.169034 30:-0.239587 31:-0.147466 32:-0.829701 33:-0.189541 34:0.344144 35:0.216938 36:-0.134476 37:-0.176252 38:-0.32245 39:-0.114274 40:-0.0740741 41:-0.396873 42:0.0393162 43:0.0746153 44:-0.530018 45:-0.577196 46:-0.96215 47:-0.578414 48:0.229111 49:0.0792529 50:-0.517576 51:-0.585657 52:-0.520685 53:-0.0025974 54:0.169591 55:-0.387755 56:-0.769231 57:-0.863636 58:-0.272311 59:-0.680441 60:-0.930716 
-0.5 1:-0.638643 2:-0.693956 3:-0.920499 4:-0.898241 5:-0.925437 6:-0.873152 7:-0.66342 8:-0.406836 9:-0.476381 10:-0.359073 11:-0.310648 12:-0.353458 13:-0.573629 14:-0.987006 15:-0.74501 16:-0.685325 17:-0.621179 18:-0.418182 19:-0.322533 20:-0.166096 21:0.0935919 22:0.467744 23:0.589276 24:0.761705 25:0.883607 26:1.0 27:0.868684 28:0.506587 29:0.416193 30:0.650154 31:0.556403 32:-0.0647046 33:-0.739998 34:-0.716587 35:-0.709931 36:-0.639315 37:-0.496173 38:-0.723406 39:-0.876028 40:-0.85817 41:-0.887203 42:-0.506716 43:-0.352127 44:-0.520227 45:-0.590844 46:-0.596818 47:-0.641072 48:-0.975442 49:-0.844523 50:-0.718788 51:-0.639442 52:-0.606277 53:-0.355844 54:-0.783626 55:-0.85034 56:-0.707692 57:-0.789773 58:-0.84897 59:-0.669421 60:-0.496536 
